{"learner":{"attributes":{"scikit_learn":"{\"_estimator_type\": \"regressor\"}"},"feature_names":["temperature_2m_mean","precipitation_sum","wind_speed_10m_max","wind_direction_10m_dominant"],"feature_types":["float","float","float","float"],"gradient_booster":{"model":{"gbtree_model_param":{"num_parallel_tree":"1","num_trees":"100"},"iteration_indptr":[0,1,2,3,4,5,6,7,8,9,10,11,12,13,14,15,16,17,18,19,20,21,22,23,24,25,26,27,28,29,30,31,32,33,34,35,36,37,38,39,40,41,42,43,44,45,46,47,48,49,50,51,52,53,54,55,56,57,58,59,60,61,62,63,64,65,66,67,68,69,70,71,72,73,74,75,76,77,78,79,80,81,82,83,84,85,86,87,88,89,90,91,92,93,94,95,96,97,98,99,100],"tree_info":[0,0,0,0,0,0,0,0,0,0,0,0,0,0,0,0,0,0,0,0,0,0,0,0,0,0,0,0,0,0,0,0,0,0,0,0,0,0,0,0,0,0,0,0,0,0,0,0,0,0,0,0,0,0,0,0,0,0,0,0,0,0,0,0,0,0,0,0,0,0,0,0,0,0,0,0,0,0,0,0,0,0,0,0,0,0,0,0,0,0,0,0,0,0,0,0,0,0,0,0],"trees":[{"base_weights":[1.1198448E-6,2.0521706E1,-2.83795E0,2.8228579E1,-3.3016858E0,5.912952E0,-7.3958545E0,3.86866E1,2.0974125E1,1.0560351E1,-1.1201187E1,1.3253108E1,7.2496164E-1,7.640133E-1,-9.604815E0,4.2481113E1,2.9580229E1,-1.0529763E1,2.4231037E1,6.666304E0,1.4962426E1,-6.5539346E0,-1.6810545E1,1.7693718E1,3.2377198E-1,3.604383E0,-5.791433E0,-3.9879491E0,4.0726795E0,-4.460587E0,-1.17956085E1,3.1636002E1,4.8918E1,2.5414174E0,3.101179E1,-4.27811E0,-1.56114435E1,2.679909E1,5.1715198E0,2.812468E1,8.561215E-1,-9.094112E0,1.1971819E1,-9.055888E0,-5.879712E0,6.1479645E0,2.1549343E1,7.162899E0,-5.8880982E0,-3.2697349E0,5.1230597E0,-8.568133E-1,-8.635692E0,6.1378036E0,-5.3054414E0,2.267152E1,2.2988615E0,2.3275337E0,-7.757675E0,-7.6549883E0,-1.3740078E1,1.5423119E1,7.601281E0,1.5677506E1,6.4231186E0,-1.3781811E0,2.521819E0,9.779775E0,4.3949103E0,-3.0054536E0,3.1624253E0,-1.6375748E0,-5.3197393E0,5.1250014E0,9.887166E0,3.519274E0,-3.7851107E-1,1.4362426E1,3.1949105E0,1.7710503E0,-1.0726047E0,1.8374039E0,-3.7722065E0,-3.086817E0,1.2181893E-1,2.9446099E0,-1.803231E0,7.71421E0,3.6773005E0,6.9172044E0,4.154314E-1,-1.0038886E0,-4.3516655E0,-1.73642E0,4.416567E0,1.3032299E0,5.611659E0,-1.2552987E0,4.173335E0,-3.1037986E0,2.7992742E0,-5.260468E-2,7.1549106E0,-1.7775834E0,1.0592741E0,1.0530316E0,8.647396E0,1.4037377E0,-1.7143956E0,2.852754E0,-1.4964135E0,-1.314585E0,-3.1597815E0,-1.0327113E0,-3.0710073E0,-2.9169192E0,-4.6884995E0],"categories":[],"categories_nodes":[],"categories_segments":[],"categories_sizes":[],"default_left":[0,0,0,0,0,0,0,0,0,0,0,0,0,0,0,0,0,0,0,0,0,0,0,0,0,0,0,0,0,0,0,0,0,0,0,0,0,0,0,0,0,0,0,0,0,0,0,0,0,0,0,0,0,0,0,0,0,0,0,0,0,0,0,0,0,0,0,0,0,0,0,0,0,0,0,0,0,0,0,0,0,0,0,0,0,0,0,0,0,0,0,0,0,0,0,0,0,0,0,0,0,0,0,0,0,0,0,0,0,0,0,0,0,0,0,0,0],"id":0,"left_children":[1,3,5,7,9,11,13,15,17,19,21,23,25,27,29,31,33,35,37,39,-1,41,43,45,47,49,51,53,55,57,59,61,63,65,67,69,71,73,75,77,79,81,-1,83,-1,85,87,89,91,93,95,97,99,101,103,105,107,109,111,113,115,-1,-1,-1,-1,-1,-1,-1,-1,-1,-1,-1,-1,-1,-1,-1,-1,-1,-1,-1,-1,-1,-1,-1,-1,-1,-1,-1,-1,-1,-1,-1,-1,-1,-1,-1,-1,-1,-1,-1,-1,-1,-1,-1,-1,-1,-1,-1,-1,-1,-1,-1,-1,-1,-1,-1,-1],"loss_changes":[1.8456127E5,7.078069E4,1.1108571E5,2.1265938E4,1.0521091E4,3.6319344E4,3.3010805E4,2.8207969E3,1.8108484E4,5.025744E3,1.479979E3,2.2672852E4,1.0528404E4,6.1638013E3,1.6187375E4,4.1069375E3,1.392082E3,4.732837E2,7.5948516E3,4.0902656E3,0E0,4.4934937E3,4.0635645E2,1.2955258E4,4.3755205E3,4.0777417E3,2.4066782E3,2.1804E3,7.568794E3,9.686662E3,8.026625E3,2.8074336E3,3.3835E3,1.641559E2,4.575E2,8.711916E2,9.701587E1,7.7534688E3,8.5876184E2,1.9060723E3,6.2502454E2,1.8776521E3,0E0,1.0922015E2,0E0,3.4033198E3,8.198141E3,4.4682383E3,1.1342689E3,3.3021416E3,3.2938281E3,3.2032017E3,3.4459268E3,2.1287224E3,8.0414624E2,2.256876E3,4.0704866E3,7.5078135E3,2.6797598E3,3.499373E3,5.051461E3,0E0,0E0,0E0,0E0,0E0,0E0,0E0,0E0,0E0,0E0,0E0,0E0,0E0,0E0,0E0,0E0,0E0,0E0,0E0,0E0,0E0,0E0,0E0,0E0,0E0,0E0,0E0,0E0,0E0,0E0,0E0,0E0,0E0,0E0,0E0,0E0,0E0,0E0,0E0,0E0,0E0,0E0,0E0,0E0,0E0,0E0,0E0,0E0,0E0,0E0,0E0,0E0,0E0,0E0,0E0,0E0],"parents":[2147483647,0,0,1,1,2,2,3,3,4,4,5,5,6,6,7,7,8,8,9,9,10,10,11,11,12,12,13,13,14,14,15,15,16,16,17,17,18,18,19,19,21,21,22,22,23,23,24,24,25,25,26,26,27,27,28,28,29,29,30,30,31,31,32,32,33,33,34,34,35,35,36,36,37,37,38,38,39,39,40,40,41,41,43,43,45,45,46,46,47,47,48,48,49,49,50,50,51,51,52,52,53,53,54,54,55,55,56,56,57,57,58,58,59,59,60,60],"right_children":[2,4,6,8,10,12,14,16,18,20,22,24,26,28,30,32,34,36,38,40,-1,42,44,46,48,50,52,54,56,58,60,62,64,66,68,70,72,74,76,78,80,82,-1,84,-1,86,88,90,92,94,96,98,100,102,104,106,108,110,112,114,116,-1,-1,-1,-1,-1,-1,-1,-1,-1,-1,-1,-1,-1,-1,-1,-1,-1,-1,-1,-1,-1,-1,-1,-1,-1,-1,-1,-1,-1,-1,-1,-1,-1,-1,-1,-1,-1,-1,-1,-1,-1,-1,-1,-1,-1,-1,-1,-1,-1,-1,-1,-1,-1,-1,-1,-1],"split_conditions":[4.196417E0,2.2158507E2,1.811841E1,1.5941944E1,4E-1,1.2050832E1,1.7897394E2,2.240167E0,3.818665E1,4.1172504E0,2.8750128E2,2.4461565E2,2.4403596E2,6.3736813E1,8.308917E0,1.1966954E1,2.0556154E1,2.240167E0,4.4999995E0,2.342579E2,1.4962426E1,7E0,1.4E0,6.190053E1,1E-1,4.148335E1,1.4168641E1,1.859845E1,5.1234994E0,2.4798225E1,7.0000005E-1,8.891344E0,9E-1,3.6526663E0,1.4917212E1,2.549908E1,1.839878E1,8.142384E1,2.588083E0,1.1298495E1,2.3630836E0,1.784816E1,1.1971819E1,3.581833E0,-5.879712E0,4.935809E1,2E-1,1.255879E1,1.8000002E0,1.5E0,2.4361252E1,1.3684735E1,5.3999996E0,4E-1,1.8775583E1,7.859227E1,2.51614E1,2.4365454E2,2.3E0,1.3400584E1,2.4248613E1,1.5423119E1,7.601281E0,1.5677506E1,6.4231186E0,-1.3781811E0,2.521819E0,9.779775E0,4.3949103E0,-3.0054536E0,3.1624253E0,-1.6375748E0,-5.3197393E0,5.1250014E0,9.887166E0,3.519274E0,-3.7851107E-1,1.4362426E1,3.1949105E0,1.7710503E0,-1.0726047E0,1.8374039E0,-3.7722065E0,-3.086817E0,1.2181893E-1,2.9446099E0,-1.803231E0,7.71421E0,3.6773005E0,6.9172044E0,4.154314E-1,-1.0038886E0,-4.3516655E0,-1.73642E0,4.416567E0,1.3032299E0,5.611659E0,-1.2552987E0,4.173335E0,-3.1037986E0,2.7992742E0,-5.260468E-2,7.1549106E0,-1.7775834E0,1.0592741E0,1.0530316E0,8.647396E0,1.4037377E0,-1.7143956E0,2.852754E0,-1.4964135E0,-1.314585E0,-3.1597815E0,-1.0327113E0,-3.0710073E0,-2.9169192E0,-4.6884995E0],"split_indices":[0,3,2,2,1,0,3,0,3,0,3,3,3,3,0,2,3,0,1,3,0,1,1,3,1,3,2,2,0,2,1,2,1,0,2,2,2,3,0,2,0,2,0,0,0,3,1,2,1,1,0,2,1,1,0,3,2,3,1,0,2,0,0,0,0,0,0,0,0,0,0,0,0,0,0,0,0,0,0,0,0,0,0,0,0,0,0,0,0,0,0,0,0,0,0,0,0,0,0,0,0,0,0,0,0,0,0,0,0,0,0,0,0,0,0,0,0],"split_type":[0,0,0,0,0,0,0,0,0,0,0,0,0,0,0,0,0,0,0,0,0,0,0,0,0,0,0,0,0,0,0,0,0,0,0,0,0,0,0,0,0,0,0,0,0,0,0,0,0,0,0,0,0,0,0,0,0,0,0,0,0,0,0,0,0,0,0,0,0,0,0,0,0,0,0,0,0,0,0,0,0,0,0,0,0,0,0,0,0,0,0,0,0,0,0,0,0,0,0,0,0,0,0,0,0,0,0,0,0,0,0,0,0,0,0,0,0],"sum_hessian":[3.167E3,3.84E2,2.783E3,2.9E2,9.4E1,9.53E2,1.83E3,1.17E2,1.73E2,3.4E1,6E1,3.94E2,5.59E2,3.9E2,1.44E3,8E1,3.7E1,1.6E1,1.57E2,3.2E1,2E0,3.4E1,2.6E1,2.93E2,1.01E2,3.88E2,1.71E2,1.6E2,2.3E2,4.31E2,1.009E3,3.2E1,4.8E1,2E0,3.5E1,8E0,8E0,1.38E2,1.9E1,6E0,2.6E1,3.3E1,1E0,8E0,1.8E1,7.4E1,2.19E2,4.8E1,5.3E1,7E1,3.18E2,6.3E1,1.08E2,1.8E1,1.42E2,1.9E1,2.11E2,1.41E2,2.9E2,3.24E2,6.85E2,6E0,2.6E1,4.2E1,6E0,1E0,1E0,3.1E1,4E0,6E0,2E0,2E0,6E0,5.5E1,8.3E1,9E0,1E1,2E0,4E0,1.2E1,1.4E1,6E0,2.7E1,7E0,1E0,5.7E1,1.7E1,1.5E2,6.9E1,1.2E1,3.6E1,4.2E1,1.1E1,6.2E1,8E0,3.02E2,1.6E1,5.2E1,1.1E1,9.9E1,9E0,1.4E1,4E0,1.33E2,9E0,5E0,1.4E1,1.63E2,4.8E1,7.1E1,7E1,1.32E2,1.58E2,1.24E2,2E2,2.21E2,4.64E2],"tree_param":{"num_deleted":"0","num_feature":"4","num_nodes":"117","size_leaf_vector":"1"}},{"base_weights":[4.2258527E-2,1.4641055E1,-1.9766276E0,1.952568E1,-3.6463482E0,4.167073E0,-5.1765804E0,2.4034248E1,9.038128E0,4.7096057E0,-8.06628E0,9.600531E0,6.9295025E-1,5.751525E-1,-6.7336593E0,5.74649E0,2.5701431E1,-6.646456E0,1.3155067E1,6.25154E-1,1.196994E1,-3.8933969E0,-1.2094963E1,1.2918296E1,-7.2609425E-2,2.5263216E0,-4.006494E0,3.9122827E0,-2.118732E0,-6.3750345E-1,-7.7905354E0,1.3654054E1,-4.5568094E0,2.6466515E1,4.6049333E0,-2.519684E0,-1.3950506E1,1.4536921E1,-8.821887E0,4.63271E0,-5.386759E-1,-6.550201E0,1.0176046E1,-7.328464E0,-4.4741707E0,3.7661417E0,1.5820334E1,4.998556E0,-4.459722E0,-5.16694E0,3.3273823E0,-1.1213663E0,-7.1731563E0,-4.859486E0,6.806567E0,9.106544E0,-3.0575924E0,6.755103E0,-3.979849E0,-5.250482E0,-9.836542E0,4.8924417E0,3.4213603E-1,-1.6761905E0,5.5306894E-1,7.3595576E0,1.2684538E1,-1.9318143E0,2.8078804E0,3.3974552E0,-1.3367372E0,-1.1736268E0,-5.1550364E0,5.019105E0,-6.5657187E-1,-4.2520328E0,1.8876498E0,1.2806059E0,-1.4892535E0,2.343681E0,-3.0508506E0,-1.3356192E0,-2.624108E0,-1.4287509E0,2.6506238E0,5.8237176E0,2.686916E0,5.5211034E0,3.609625E-2,-2.938263E0,-1.5902835E-1,-2.531204E0,2.1105826E0,1.6743292E0,3.168741E-1,6.545904E-1,-1.9004571E0,-2.990971E0,3.230378E0,-2.5649164E0,2.8375125E-1,2.736446E0,3.1574744E-1,-3.6973372E-1,4.9401245E0,-1.228742E0,2.760825E0,5.198759E0,7.551256E-1,8.842055E-1,-1.6440889E0,-1.1821262E0,-2.6750298E0,-2.9909027E0,7.0458093E0],"categories":[],"categories_nodes":[],"categories_segments":[],"categories_sizes":[],"default_left":[0,0,0,0,0,0,0,0,0,0,0,0,0,0,0,0,0,0,0,0,0,0,0,0,0,0,0,0,0,0,0,0,0,0,0,0,0,0,0,0,0,0,0,0,0,0,0,0,0,0,0,0,0,0,0,0,0,0,0,0,0,0,0,0,0,0,0,0,0,0,0,0,0,0,0,0,0,0,0,0,0,0,0,0,0,0,0,0,0,0,0,0,0,0,0,0,0,0,0,0,0,0,0,0,0,0,0,0,0,0,0,0,0,0,0],"id":1,"left_children":[1,3,5,7,9,11,13,15,17,19,21,23,25,27,29,31,33,35,37,39,-1,41,43,45,47,49,51,53,55,57,59,61,63,65,67,69,71,73,75,-1,77,79,-1,81,-1,83,85,87,89,91,93,95,97,99,101,103,105,107,109,111,113,-1,-1,-1,-1,-1,-1,-1,-1,-1,-1,-1,-1,-1,-1,-1,-1,-1,-1,-1,-1,-1,-1,-1,-1,-1,-1,-1,-1,-1,-1,-1,-1,-1,-1,-1,-1,-1,-1,-1,-1,-1,-1,-1,-1,-1,-1,-1,-1,-1,-1,-1,-1,-1,-1],"loss_changes":[9.3400375E4,3.4462125E4,5.475376E4,1.4157078E4,3.066474E3,1.800153E4,1.6402133E4,6.3159766E3,6.0926763E3,4.1433037E3,8.607156E2,1.1939609E4,5.033149E3,3.5233176E3,9.279223E3,1.610225E3,3.0093906E3,5.676921E2,2.375544E3,4.7392572E2,0E0,3.0351533E3,2.5348901E2,7.2975156E3,2.1580786E3,2.6055557E3,1.4902974E3,4.4759756E3,2.3148E3,5.3145347E3,6.3302266E3,3.4673486E2,6.9660324E1,4.6844062E3,4.8036642E2,4.2572406E2,1.5995264E2,2.6046455E3,4.9360004E2,0E0,5.743403E2,1.4829639E3,0E0,1.0021912E1,0E0,2.9819902E3,5.003828E3,2.9404858E3,1.0848605E3,1.6556069E3,1.94425E3,1.5121279E3,4.021134E3,9.50699E2,1.748669E3,1.3140037E3,2.5961943E3,2.9588655E3,1.5544495E3,2.6065469E3,3.2464219E3,0E0,0E0,0E0,0E0,0E0,0E0,0E0,0E0,0E0,0E0,0E0,0E0,0E0,0E0,0E0,0E0,0E0,0E0,0E0,0E0,0E0,0E0,0E0,0E0,0E0,0E0,0E0,0E0,0E0,0E0,0E0,0E0,0E0,0E0,0E0,0E0,0E0,0E0,0E0,0E0,0E0,0E0,0E0,0E0,0E0,0E0,0E0,0E0,0E0,0E0,0E0,0E0,0E0,0E0],"parents":[2147483647,0,0,1,1,2,2,3,3,4,4,5,5,6,6,7,7,8,8,9,9,10,10,11,11,12,12,13,13,14,14,15,15,16,16,17,17,18,18,19,19,21,21,22,22,23,23,24,24,25,25,26,26,27,27,28,28,29,29,30,30,31,31,32,32,33,33,34,34,35,35,36,36,37,37,38,38,40,40,41,41,43,43,45,45,46,46,47,47,48,48,49,49,50,50,51,51,52,52,53,53,54,54,55,55,56,56,57,57,58,58,59,59,60,60],"right_children":[2,4,6,8,10,12,14,16,18,20,22,24,26,28,30,32,34,36,38,40,-1,42,44,46,48,50,52,54,56,58,60,62,64,66,68,70,72,74,76,-1,78,80,-1,82,-1,84,86,88,90,92,94,96,98,100,102,104,106,108,110,112,114,-1,-1,-1,-1,-1,-1,-1,-1,-1,-1,-1,-1,-1,-1,-1,-1,-1,-1,-1,-1,-1,-1,-1,-1,-1,-1,-1,-1,-1,-1,-1,-1,-1,-1,-1,-1,-1,-1,-1,-1,-1,-1,-1,-1,-1,-1,-1,-1,-1,-1,-1,-1,-1,-1],"split_conditions":[4.196417E0,2.342579E2,1.811841E1,2.1897945E1,4E-1,1.15234995E1,1.7897394E2,4.000864E1,6.055668E1,4.1172504E0,2.8750128E2,2.4461565E2,2.5171454E2,1.057975E1,1E-1,1.539184E1,4.4999995E0,2.4776669E0,4.0193334E0,8.4963045E0,1.196994E1,7E0,1.9000002E0,5.8704998E1,1E-1,2.0556154E1,2E-1,4.2691265E1,1.859845E1,9.298749E0,1.0002915E1,3.1389257E1,3.7342327E1,1.1000001E0,7.38251E1,2.5842283E1,1.549605E1,2.1629375E2,2.103711E2,4.63271E0,2.3630836E0,1.784816E1,1.0176046E1,2.588083E0,-4.4741707E0,7.7237487E0,1.5542662E1,1.255879E1,6.471418E0,1.1000001E0,1.4512064E1,1.7748749E1,1.916125E1,4E-1,1.5940056E2,2E-1,2.1940414E1,2.1325253E1,2.0534785E2,2.723293E2,2.3004747E1,4.8924417E0,3.4213603E-1,-1.6761905E0,5.5306894E-1,7.3595576E0,1.2684538E1,-1.9318143E0,2.8078804E0,3.3974552E0,-1.3367372E0,-1.1736268E0,-5.1550364E0,5.019105E0,-6.5657187E-1,-4.2520328E0,1.8876498E0,1.2806059E0,-1.4892535E0,2.343681E0,-3.0508506E0,-1.3356192E0,-2.624108E0,-1.4287509E0,2.6506238E0,5.8237176E0,2.686916E0,5.5211034E0,3.609625E-2,-2.938263E0,-1.5902835E-1,-2.531204E0,2.1105826E0,1.6743292E0,3.168741E-1,6.545904E-1,-1.9004571E0,-2.990971E0,3.230378E0,-2.5649164E0,2.8375125E-1,2.736446E0,3.1574744E-1,-3.6973372E-1,4.9401245E0,-1.228742E0,2.760825E0,5.198759E0,7.551256E-1,8.842055E-1,-1.6440889E0,-1.1821262E0,-2.6750298E0,-2.9909027E0,7.0458093E0],"split_indices":[0,3,2,2,1,0,3,3,3,0,3,3,3,0,1,2,1,0,0,2,0,1,1,3,1,3,1,3,2,0,0,3,3,1,3,3,3,3,3,0,0,2,0,0,0,0,2,2,0,1,2,0,0,1,3,1,0,2,3,3,0,0,0,0,0,0,0,0,0,0,0,0,0,0,0,0,0,0,0,0,0,0,0,0,0,0,0,0,0,0,0,0,0,0,0,0,0,0,0,0,0,0,0,0,0,0,0,0,0,0,0,0,0,0,0],"split_type":[0,0,0,0,0,0,0,0,0,0,0,0,0,0,0,0,0,0,0,0,0,0,0,0,0,0,0,0,0,0,0,0,0,0,0,0,0,0,0,0,0,0,0,0,0,0,0,0,0,0,0,0,0,0,0,0,0,0,0,0,0,0,0,0,0,0,0,0,0,0,0,0,0,0,0,0,0,0,0,0,0,0,0,0,0,0,0,0,0,0,0,0,0,0,0,0,0,0,0,0,0,0,0,0,0,0,0,0,0,0,0,0,0,0,0],"sum_hessian":[3.167E3,3.84E2,2.783E3,3.03E2,8.1E1,9.53E2,1.83E3,2.11E2,9.2E1,2.8E1,5.3E1,3.71E2,5.82E2,3.9E2,1.44E3,1.8E1,1.93E2,1.9E1,7.3E1,2.6E1,2E0,2.7E1,2.6E1,2.76E2,9.5E1,4.19E2,1.63E2,1.74E2,2.16E2,2.13E2,1.227E3,1E1,8E0,1.86E2,7E0,1.3E1,6E0,6.9E1,4E0,1E0,2.5E1,2.6E1,1E0,1.1E1,1.5E1,6.7E1,2.09E2,4.4E1,5.1E1,3.9E1,3.8E2,8.6E1,7.7E1,4.3E1,1.31E2,1.6E1,2E2,6.6E1,1.47E2,5.49E2,6.78E2,8E0,2E0,7E0,1E0,1.68E2,1.8E1,2E0,5E0,1E0,1.2E1,2E0,4E0,6.1E1,8E0,3E0,1E0,1.2E1,1.3E1,5E0,2.1E1,5E0,6E0,2.5E1,4.2E1,1.36E2,7.3E1,1.1E1,3.3E1,2.1E1,3E1,3.1E1,8E0,1.9E2,1.9E2,5.3E1,3.3E1,6.7E1,1E1,2.6E1,1.7E1,9.3E1,3.8E1,7E0,9E0,1.85E2,1.5E1,1.8E1,4.8E1,2.6E1,1.21E2,4.06E2,1.43E2,6.76E2,2E0],"tree_param":{"num_deleted":"0","num_feature":"4","num_nodes":"115","size_leaf_vector":"1"}},{"base_weights":[5.0165214E-2,3.9597614E0,-3.7356179E0,1.0324083E1,2.50755E-1,-6.3517207E-1,-5.5964866E0,1.4799103E1,4.3397493E0,1.9241039E0,-7.6796527E0,4.134168E0,-2.5702055E0,-5.8974524E0,1.7846306E1,2.646733E0,1.6335154E1,-4.7365317E0,6.6674175E0,5.1307983E0,7.561158E-2,-5.7256093E0,-1.4902549E1,1.1599181E1,2.5096884E0,1.0431567E-1,-4.4522967E0,-4.708736E0,-8.242896E0,-2.626271E0,2.0792538E1,-7.182758E-1,1.2643378E1,2.3872034E1,1.427418E1,-7.40217E0,8.525578E0,1.4466175E1,2.0596032E0,1.1859116E1,2.855108E0,-2.580553E0,1.9242635E0,-4.5447154E0,-1.4372076E1,-1.5516061E1,-8.9456636E-1,9.140027E0,1.2806073E1,7.105186E-1,1.0002273E1,-7.495226E-1,2.1191418E1,-1.6321121E0,-7.15052E0,-3.7335002E0,-9.965272E0,-8.77882E0,9.945316E0,2.3100803E1,1.8502424E0,1.8274387E0,-1.4496313E0,9.734884E-1,7.818979E0,5.060131E0,2.3432243E0,-3.4768262E0,-1.3474798E0,5.682865E0,-1.0790534E0,1.1387718E0,5.6106973E0,1.0128374E0,-2.3459883E0,1.5533984E0,5.2726946E0,-8.41016E-1,1.3491672E0,-1.3079939E0,9.4717E-1,1.559368E0,-4.7432955E-2,-2.3038507E0,-3.5323313E-1,-4.714379E0,8.6485463E-1,-2.7520804E0,-5.046192E0,4.6299434E0,-9.398747E-1,-2.4010417E0,5.5968523E-1,3.6330006E0,-6.345843E-1,1.988667E-1,-2.2512343E0,7.7666945E0,3.3588002E0,2.086281E-1,-1.6933577E0,-2.278279E0,4.2054443E0,1.3191125E0,-1.351298E0,-2.3617184E0,-3.537345E0,-3.502487E0,-1.9864925E0,8.228245E0,6.439018E-1,2.5802622E0,8.425909E0],"categories":[],"categories_nodes":[],"categories_segments":[],"categories_sizes":[],"default_left":[0,0,0,0,0,0,0,0,0,0,0,0,0,0,0,0,0,0,0,0,0,0,0,0,0,0,0,0,0,0,0,0,0,0,0,0,0,0,0,0,0,0,0,0,0,0,0,0,0,0,0,0,0,0,0,0,0,0,0,0,0,0,0,0,0,0,0,0,0,0,0,0,0,0,0,0,0,0,0,0,0,0,0,0,0,0,0,0,0,0,0,0,0,0,0,0,0,0,0,0,0,0,0,0,0,0,0,0,0,0,0,0,0],"id":2,"left_children":[1,3,5,7,9,11,13,15,17,19,21,23,25,27,29,31,33,35,37,39,41,43,45,47,49,51,53,55,57,-1,59,61,-1,63,65,67,69,71,73,75,77,79,81,83,85,87,-1,89,-1,91,93,95,97,99,101,103,105,107,109,111,-1,-1,-1,-1,-1,-1,-1,-1,-1,-1,-1,-1,-1,-1,-1,-1,-1,-1,-1,-1,-1,-1,-1,-1,-1,-1,-1,-1,-1,-1,-1,-1,-1,-1,-1,-1,-1,-1,-1,-1,-1,-1,-1,-1,-1,-1,-1,-1,-1,-1,-1,-1,-1],"loss_changes":[4.6903992E4,3.6798086E4,9.285377E3,1.5307508E4,1.309933E4,5.594069E3,7.2030527E3,6.0794297E3,5.2498433E3,4.8305645E3,2.3422568E3,2.093073E3,2.1699858E3,2.7325273E3,1.2008506E3,5.0808765E3,4.1794375E3,1.8660591E3,7.0494463E3,4.528988E3,2.5485137E3,1.3335298E3,2.1701758E2,1.9797759E3,1.9475558E3,3.2387742E3,1.9135298E3,3.3564453E3,3.3332246E3,0E0,2.626289E2,1.037942E3,0E0,2.6725352E3,3.739625E3,4.719983E2,1.2046813E3,3.228671E3,1.6522332E3,2.773457E3,2.0939932E3,2.1884893E3,2.086799E3,1.2787502E3,4.159436E2,1.2701758E2,0E0,2.3654023E3,0E0,1.2026627E3,7.407505E2,1.6554398E3,3.8825684E1,1.1713065E3,1.3182148E3,3.529458E3,3.0077246E2,1.946877E3,1.3045616E3,4.8133496E2,0E0,0E0,0E0,0E0,0E0,0E0,0E0,0E0,0E0,0E0,0E0,0E0,0E0,0E0,0E0,0E0,0E0,0E0,0E0,0E0,0E0,0E0,0E0,0E0,0E0,0E0,0E0,0E0,0E0,0E0,0E0,0E0,0E0,0E0,0E0,0E0,0E0,0E0,0E0,0E0,0E0,0E0,0E0,0E0,0E0,0E0,0E0,0E0,0E0,0E0,0E0,0E0,0E0],"parents":[2147483647,0,0,1,1,2,2,3,3,4,4,5,5,6,6,7,7,8,8,9,9,10,10,11,11,12,12,13,13,14,14,15,15,16,16,17,17,18,18,19,19,20,20,21,21,22,22,23,23,24,24,25,25,26,26,27,27,28,28,30,30,31,31,33,33,34,34,35,35,36,36,37,37,38,38,39,39,40,40,41,41,42,42,43,43,44,44,45,45,47,47,49,49,50,50,51,51,52,52,53,53,54,54,55,55,56,56,57,57,58,58,59,59],"right_children":[2,4,6,8,10,12,14,16,18,20,22,24,26,28,30,32,34,36,38,40,42,44,46,48,50,52,54,56,58,-1,60,62,-1,64,66,68,70,72,74,76,78,80,82,84,86,88,-1,90,-1,92,94,96,98,100,102,104,106,108,110,112,-1,-1,-1,-1,-1,-1,-1,-1,-1,-1,-1,-1,-1,-1,-1,-1,-1,-1,-1,-1,-1,-1,-1,-1,-1,-1,-1,-1,-1,-1,-1,-1,-1,-1,-1,-1,-1,-1,-1,-1,-1,-1,-1,-1,-1,-1,-1,-1,-1,-1,-1,-1,-1],"split_conditions":[2.126048E2,7.8654175E0,5E-1,2.012461E1,2.502971E1,8.069334E0,2.0829748E1,3.7342327E1,6.055668E1,1.5542662E1,3.4404022E1,1.255879E1,1.7377226E1,1.4015416E1,2.2039095E2,7.7237487E0,4.630833E-1,7.052667E0,4.0193334E0,1.1288082E1,7.38251E1,1.1099999E1,2.0967441E2,1.2397806E1,7.279751E0,1.722742E1,2.5320306E2,8E0,3.519155E2,-2.626271E0,2.7366104E2,1.481259E1,1.2643378E1,-3.2806666E0,2E-1,2.4023088E1,7.5776668E0,8.142384E1,3.6095276E1,9.278192E1,4.7883003E1,4E-1,1.5940056E2,1.1700584E1,1.6344334E1,1.8000002E0,-8.9456636E-1,2.9484384E2,1.2806073E1,1.4168641E1,2.7897097E1,3.402912E2,2.6470734E2,1.7311249E1,2.1940414E1,2.2039095E2,8.990167E0,1.6344334E1,1.2000002E0,2.2835461E2,1.8502424E0,1.8274387E0,-1.4496313E0,9.734884E-1,7.818979E0,5.060131E0,2.3432243E0,-3.4768262E0,-1.3474798E0,5.682865E0,-1.0790534E0,1.1387718E0,5.6106973E0,1.0128374E0,-2.3459883E0,1.5533984E0,5.2726946E0,-8.41016E-1,1.3491672E0,-1.3079939E0,9.4717E-1,1.559368E0,-4.7432955E-2,-2.3038507E0,-3.5323313E-1,-4.714379E0,8.6485463E-1,-2.7520804E0,-5.046192E0,4.6299434E0,-9.398747E-1,-2.4010417E0,5.5968523E-1,3.6330006E0,-6.345843E-1,1.988667E-1,-2.2512343E0,7.7666945E0,3.3588002E0,2.086281E-1,-1.6933577E0,-2.278279E0,4.2054443E0,1.3191125E0,-1.351298E0,-2.3617184E0,-3.537345E0,-3.502487E0,-1.9864925E0,8.228245E0,6.439018E-1,2.5802622E0,8.425909E0],"split_indices":[3,0,1,2,2,0,0,3,3,2,2,2,2,0,3,0,0,0,0,0,3,1,3,2,0,2,3,1,3,0,3,2,0,0,1,2,0,3,2,3,3,1,3,0,0,1,0,3,0,2,2,3,3,0,0,3,0,0,1,3,0,0,0,0,0,0,0,0,0,0,0,0,0,0,0,0,0,0,0,0,0,0,0,0,0,0,0,0,0,0,0,0,0,0,0,0,0,0,0,0,0,0,0,0,0,0,0,0,0,0,0,0,0],"split_type":[0,0,0,0,0,0,0,0,0,0,0,0,0,0,0,0,0,0,0,0,0,0,0,0,0,0,0,0,0,0,0,0,0,0,0,0,0,0,0,0,0,0,0,0,0,0,0,0,0,0,0,0,0,0,0,0,0,0,0,0,0,0,0,0,0,0,0,0,0,0,0,0,0,0,0,0,0,0,0,0,0,0,0,0,0,0,0,0,0,0,0,0,0,0,0,0,0,0,0,0,0,0,0,0,0,0,0,0,0,0,0,0,0],"sum_hessian":[3.167E3,1.558E3,1.609E3,5.73E2,9.85E2,6.04E2,1.005E3,3.27E2,2.46E2,8.14E2,1.71E2,1.74E2,4.3E2,9.93E2,1.2E1,3.7E1,2.9E2,5E1,1.96E2,2.97E2,5.17E2,1.36E2,3.5E1,3E1,1.44E2,1.78E2,2.52E2,6.61E2,3.32E2,1E0,1.1E1,3.5E1,2E0,6E1,2.3E2,4.2E1,8E0,7.2E1,1.24E2,7.4E1,2.23E2,2.12E2,3.05E2,1.21E2,1.5E1,3.3E1,2E0,2.9E1,1E0,1.17E2,2.7E1,1.72E2,6E0,1.24E2,1.28E2,5.59E2,1.02E2,3.23E2,9E0,9E0,2E0,1.3E1,2.2E1,6E0,5.4E1,1.63E2,6.7E1,1.6E1,2.6E1,4E0,4E0,2.1E1,5.1E1,1.1E2,1.4E1,3.5E1,3.9E1,5E1,1.73E2,1.62E2,5E1,1.18E2,1.87E2,6.2E1,5.9E1,1.4E1,1E0,7E0,2.6E1,1.9E1,1E1,1.3E1,1.04E2,2.3E1,4E0,1.43E2,2.9E1,3E0,3E0,7.9E1,4.5E1,1.26E2,2E0,4.8E1,5.11E2,5E1,5.2E1,1.36E2,1.87E2,2E0,7E0,3E0,6E0],"tree_param":{"num_deleted":"0","num_feature":"4","num_nodes":"113","size_leaf_vector":"1"}},{"base_weights":[5.486006E-2,1.1281833E1,-6.491972E-1,1.673008E1,6.3745584E0,1.1548071E0,-4.074246E0,1.8149542E1,-2.2879329E0,2.0152094E0,1.751234E1,3.455654E0,-1.5602996E0,-4.4334367E-1,-5.0102816E0,1.2331598E1,2.3396832E1,1.4966402E0,-5.5005226E0,5.4916286E0,-1.1793055E1,3.002541E1,-1.6738685E0,5.005021E0,-4.757639E-1,-2.4106119E0,5.4774375E0,5.6833663E0,-1.5240694E0,-3.2275355E0,-6.6272054E0,6.1004057E0,2.6881948E1,2.0255926E1,1.7242989E1,7.400696E-1,-2.1212025E-1,-2.8202877E0,9.30118E-1,-1.1137764E0,8.657041E0,-6.634597E0,-5.5274925E0,3.60413E1,-3.0187538E0,-3.1484268E0,1.1397846E0,7.614954E-1,6.313348E0,-8.82989E-1,1.0303423E1,1.0397519E0,-3.7107313E0,2.6094864E1,4.5418296E0,2.7814152E0,9.842527E0,8.5101855E-1,-3.0295396E0,-1.0723468E0,-5.5252905E0,-6.8214493E0,6.9493423E0,2.2378547E0,-4.9970665E0,9.607336E0,2.3388444E-1,6.945489E0,2.7760983E0,-2.7828248E0,3.6867578E0,-6.666623E-1,4.0196824E0,-4.013031E-2,-3.2838566E0,1.6538086E1,6.295734E0,-1.4980538E0,1.8182706E0,3.7149677E-1,-4.8525352E0,2.9456587E0,1.2756175E0,-9.0615034E-2,-4.294871E0,-1.8773301E0,1.2254984E1,-1.7431595E0,5.036815E-1,-5.869765E-1,-1.8146328E0,1.027281E1,3.5894063E0,6.522031E-1,3.1011035E0,-2.680871E0,1.8249515E0,7.0541346E-1,-1.4721248E0,-9.98412E-1,4.470825E0,-5.259874E-1,3.6735618E0,-2.579481E0,-1.1181802E0,-1.4184444E0,-2.5135286E0],"categories":[],"categories_nodes":[],"categories_segments":[],"categories_sizes":[],"default_left":[0,0,0,0,0,0,0,0,0,0,0,0,0,0,0,0,0,0,0,0,0,0,0,0,0,0,0,0,0,0,0,0,0,0,0,0,0,0,0,0,0,0,0,0,0,0,0,0,0,0,0,0,0,0,0,0,0,0,0,0,0,0,0,0,0,0,0,0,0,0,0,0,0,0,0,0,0,0,0,0,0,0,0,0,0,0,0,0,0,0,0,0,0,0,0,0,0,0,0,0,0,0,0,0,0,0,0],"id":3,"left_children":[1,3,5,7,9,11,13,15,17,19,21,23,25,27,29,31,33,35,37,39,41,43,45,47,49,51,53,55,57,59,61,63,65,67,-1,-1,-1,-1,-1,69,71,73,-1,75,-1,-1,77,79,81,83,85,87,89,91,93,95,-1,97,99,101,103,105,-1,-1,-1,-1,-1,-1,-1,-1,-1,-1,-1,-1,-1,-1,-1,-1,-1,-1,-1,-1,-1,-1,-1,-1,-1,-1,-1,-1,-1,-1,-1,-1,-1,-1,-1,-1,-1,-1,-1,-1,-1,-1,-1,-1,-1],"loss_changes":[2.5048566E4,4.89299E3,1.8429895E4,2.4171191E3,4.8200576E3,1.2212115E4,3.4949922E3,2.2148105E3,9.334027E1,3.5690054E3,6.772452E3,6.446881E3,5.381098E3,1.4123761E3,2.3365488E3,3.553316E3,3.331496E3,1.0296927E1,1.6333598E2,1.243263E3,3.9091504E2,4.462462E3,3.0978876E2,4.2090977E3,1.3259645E3,3.5970522E3,1.7525952E3,2.4276448E3,6.497661E2,1.9303442E3,2.634789E3,1.0521418E3,1.5858105E3,1.0601328E3,0E0,0E0,0E0,0E0,0E0,2.301978E3,2.0933079E3,2.78825E2,0E0,3.1532852E3,0E0,0E0,3.3209192E2,1.4736803E3,4.1492617E3,2.2588054E3,5.8203843E3,9.730491E2,2.3751006E3,5.0818115E1,1.26739E3,1.2150255E3,0E0,6.249231E2,6.4375726E2,1.8623772E3,1.01223193E3,1.3488145E3,0E0,0E0,0E0,0E0,0E0,0E0,0E0,0E0,0E0,0E0,0E0,0E0,0E0,0E0,0E0,0E0,0E0,0E0,0E0,0E0,0E0,0E0,0E0,0E0,0E0,0E0,0E0,0E0,0E0,0E0,0E0,0E0,0E0,0E0,0E0,0E0,0E0,0E0,0E0,0E0,0E0,0E0,0E0,0E0,0E0],"parents":[2147483647,0,0,1,1,2,2,3,3,4,4,5,5,6,6,7,7,8,8,9,9,10,10,11,11,12,12,13,13,14,14,15,15,16,16,17,17,18,18,19,19,20,20,21,21,22,22,23,23,24,24,25,25,26,26,27,27,28,28,29,29,30,30,31,31,32,32,33,33,39,39,40,40,41,41,43,43,46,46,47,47,48,48,49,49,50,50,51,51,52,52,53,53,54,54,55,55,57,57,58,58,59,59,60,60,61,61],"right_children":[2,4,6,8,10,12,14,16,18,20,22,24,26,28,30,32,34,36,38,40,42,44,46,48,50,52,54,56,58,60,62,64,66,68,-1,-1,-1,-1,-1,70,72,74,-1,76,-1,-1,78,80,82,84,86,88,90,92,94,96,-1,98,100,102,104,106,-1,-1,-1,-1,-1,-1,-1,-1,-1,-1,-1,-1,-1,-1,-1,-1,-1,-1,-1,-1,-1,-1,-1,-1,-1,-1,-1,-1,-1,-1,-1,-1,-1,-1,-1,-1,-1,-1,-1,-1,-1,-1,-1,-1,-1],"split_conditions":[2.0630832E0,1.5941944E1,2.4248613E1,2.9484384E2,1.1000001E0,1.36675005E1,5E-1,1.1544173E2,1.3004921E1,2E-1,3.7999997E0,2.4365454E2,2.1298502E1,5.084167E0,9.36125E0,1.481259E1,1.9422499E0,1E-1,1.4168641E1,-9.3275E-1,5E-1,1.7318335E0,4E0,6.055668E1,1.3400584E1,1.4689588E1,9.793059E0,4.9339166E0,2.126048E2,2.4166434E2,3.5447684E2,1.4618837E1,1.6047502E0,1.3300002E0,1.7242989E1,7.400696E-1,-2.1212025E-1,-2.8202877E0,9.30118E-1,7.560954E1,1.7377226E1,1.710284E1,-5.5274925E0,2.0724247E1,-3.0187538E0,-3.1484268E0,2.2805367E1,5.8704998E1,1.4386061E2,6.6E0,2.7E0,2.0556154E1,2.4222353E2,8.891344E0,2.4361252E1,3.818665E1,9.842527E0,1.36675005E1,3.5447684E2,2.387905E2,5.9089165E0,3E0,6.9493423E0,2.2378547E0,-4.9970665E0,9.607336E0,2.3388444E-1,6.945489E0,2.7760983E0,-2.7828248E0,3.6867578E0,-6.666623E-1,4.0196824E0,-4.013031E-2,-3.2838566E0,1.6538086E1,6.295734E0,-1.4980538E0,1.8182706E0,3.7149677E-1,-4.8525352E0,2.9456587E0,1.2756175E0,-9.0615034E-2,-4.294871E0,-1.8773301E0,1.2254984E1,-1.7431595E0,5.036815E-1,-5.869765E-1,-1.8146328E0,1.027281E1,3.5894063E0,6.522031E-1,3.1011035E0,-2.680871E0,1.8249515E0,7.0541346E-1,-1.4721248E0,-9.98412E-1,4.470825E0,-5.259874E-1,3.6735618E0,-2.579481E0,-1.1181802E0,-1.4184444E0,-2.5135286E0],"split_indices":[0,2,2,3,1,0,1,3,2,1,1,3,0,0,0,2,0,1,2,0,1,0,1,3,0,2,2,0,3,3,3,2,0,0,0,0,0,0,0,3,2,2,0,2,0,0,2,3,3,1,1,3,3,2,0,3,0,0,3,3,0,1,0,0,0,0,0,0,0,0,0,0,0,0,0,0,0,0,0,0,0,0,0,0,0,0,0,0,0,0,0,0,0,0,0,0,0,0,0,0,0,0,0,0,0,0,0],"split_type":[0,0,0,0,0,0,0,0,0,0,0,0,0,0,0,0,0,0,0,0,0,0,0,0,0,0,0,0,0,0,0,0,0,0,0,0,0,0,0,0,0,0,0,0,0,0,0,0,0,0,0,0,0,0,0,0,0,0,0,0,0,0,0,0,0,0,0,0,0,0,0,0,0,0,0,0,0,0,0,0,0,0,0,0,0,0,0,0,0,0,0,0,0,0,0,0,0,0,0,0,0,0,0,0,0,0,0],"sum_hessian":[3.167E3,1.86E2,2.981E3,8.7E1,9.9E1,1.953E3,1.028E3,8.1E1,6E0,7.2E1,2.7E1,1.057E3,8.96E2,2.11E2,8.17E2,4E1,4.1E1,3E0,3E0,5.8E1,1.4E1,1.6E1,1.1E1,7.58E2,2.99E2,8E2,9.6E1,3.1E1,1.8E2,3.9E2,4.27E2,2.9E1,1.1E1,3.9E1,2E0,2E0,1E0,2E0,1E0,1.9E1,3.9E1,9E0,5E0,1.4E1,2E0,2E0,9E0,1.79E2,5.79E2,2.89E2,1E1,2.19E2,5.81E2,3E0,9.3E1,2.9E1,2E0,7E1,1.1E2,2.02E2,1.88E2,4.25E2,2E0,2.8E1,1E0,9E0,2E0,3E1,9E0,1.2E1,7E0,1.2E1,2.7E1,4E0,5E0,5E0,9E0,4E0,5E0,1.75E2,4E0,2.13E2,3.66E2,2.78E2,1.1E1,7E0,3E0,1.8E1,2.01E2,3.33E2,2.48E2,1E0,2E0,6.7E1,2.6E1,6E0,2.3E1,5.6E1,1.4E1,1.09E2,1E0,1.93E2,9E0,6.8E1,1.2E2,1.83E2,2.42E2],"tree_param":{"num_deleted":"0","num_feature":"4","num_nodes":"107","size_leaf_vector":"1"}},{"base_weights":[6.332068E-2,2.2421408E0,-1.9783632E0,5.6814804E0,2.456524E-1,3.0241075E0,-2.4158034E0,7.9418983E0,1.093999E0,1.1959903E0,-1.9361253E0,-5.614748E0,4.802922E0,-1.5322592E0,-4.0102477E0,9.1031194E-1,8.9895735E0,4.328925E-1,4.149757E1,1.6025412E1,1.0395045E0,-2.1490054E0,1.084073E1,-5.613421E0,-3.4764285E0,8.40294E0,-2.8305297E0,6.0517156E-1,-2.5805628E0,-3.5183835E0,-7.6472845E0,6.923809E0,-5.8928022E0,8.5039E0,2.3583607E1,5.82225E0,-1.3409884E0,1.5546107E1,3.1277997E0,7.1588845E0,7.6383457E0,-3.7267003E0,1.1592215E0,5.380968E-1,-3.3165085E0,6.9403964E-1,5.212153E0,-1.0682874E0,-8.140098E0,6.0932055E0,2.4663965E1,5.3510594E0,-5.7559133E0,2.0583482E0,-4.1693163E0,-2.8143594E0,5.3443775E0,-3.5869179E0,4.334743E0,-7.980169E0,1.9487324E0,5.3915877E0,6.475077E-1,5.307614E0,-2.3062348E0,3.1258714E0,1.5184956E0,1.1237227E1,4.629893E0,1.301101E0,1.0898754E1,-1.6628613E0,2.9474235E-1,-1.502742E0,3.435953E0,8.548797E-1,4.8707604E-2,9.0771884E-1,-1.4139196E0,-3.9084985E0,-7.2476417E-1,7.447964E-1,-4.3247855E-1,-9.6230537E-1,2.5675588E0,-1.3323136E-1,-3.3389027E0,5.4148145E0,1.0267081E0,3.103934E0,1.0214607E1,-2.6948148E-1,9.239256E0,-2.2255297E0,1.6974524E0,-1.8880354E0,7.654017E-1,-2.8101096E0,-3.1513646E-1,-6.8028975E-1,-1.4924407E0,-2.894688E-1,2.2999833E0,-1.178985E0,9.9354364E-2,-4.288018E0,-2.225069E0],"categories":[],"categories_nodes":[],"categories_segments":[],"categories_sizes":[],"default_left":[0,0,0,0,0,0,0,0,0,0,0,0,0,0,0,0,0,0,0,0,0,0,0,0,0,0,0,0,0,0,0,0,0,0,0,0,0,0,0,0,0,0,0,0,0,0,0,0,0,0,0,0,0,0,0,0,0,0,0,0,0,0,0,0,0,0,0,0,0,0,0,0,0,0,0,0,0,0,0,0,0,0,0,0,0,0,0,0,0,0,0,0,0,0,0,0,0,0,0,0,0,0,0,0,0,0,0],"id":4,"left_children":[1,3,5,7,9,11,13,15,17,19,21,23,25,27,29,31,33,35,37,39,41,43,45,-1,47,49,51,53,55,57,59,61,63,65,67,69,71,-1,-1,73,-1,-1,75,77,79,81,-1,83,85,87,89,91,93,95,97,99,101,103,-1,105,-1,-1,-1,-1,-1,-1,-1,-1,-1,-1,-1,-1,-1,-1,-1,-1,-1,-1,-1,-1,-1,-1,-1,-1,-1,-1,-1,-1,-1,-1,-1,-1,-1,-1,-1,-1,-1,-1,-1,-1,-1,-1,-1,-1,-1,-1,-1],"loss_changes":[1.4097163E4,1.0525105E4,3.5873354E3,5.829412E3,2.0156122E3,2.0554004E3,2.114042E3,2.7691055E3,4.977005E3,1.5543828E3,8.2567896E2,5.790623E2,3.046646E3,2.1750178E3,9.3195996E2,2.086326E3,2.124291E3,1.776422E3,4.2195654E2,4.033623E2,1.0957913E3,9.147097E2,3.1938928E2,0E0,2.2715028E2,2.6666157E3,8.924347E2,2.2287979E3,1.2212295E3,6.3550684E2,3.4844165E2,1.3827438E3,1.1518423E3,2.0508145E3,5.5272363E2,1.9267151E3,1.3722542E3,0E0,0E0,3.186358E2,0E0,0E0,1.1217969E3,1.176864E3,1.7441128E3,1.5038466E1,0E0,3.363868E2,1.5611157E2,2.077746E3,8.570112E2,1.6178982E3,5.5433014E2,1.0289271E3,1.2059819E3,7.3640137E2,2.857779E2,6.370288E2,0E0,1.1446338E2,0E0,0E0,0E0,0E0,0E0,0E0,0E0,0E0,0E0,0E0,0E0,0E0,0E0,0E0,0E0,0E0,0E0,0E0,0E0,0E0,0E0,0E0,0E0,0E0,0E0,0E0,0E0,0E0,0E0,0E0,0E0,0E0,0E0,0E0,0E0,0E0,0E0,0E0,0E0,0E0,0E0,0E0,0E0,0E0,0E0,0E0,0E0],"parents":[2147483647,0,0,1,1,2,2,3,3,4,4,5,5,6,6,7,7,8,8,9,9,10,10,11,11,12,12,13,13,14,14,15,15,16,16,17,17,18,18,19,19,20,20,21,21,22,22,24,24,25,25,26,26,27,27,28,28,29,29,30,30,31,31,32,32,33,33,34,34,35,35,36,36,39,39,42,42,43,43,44,44,45,45,47,47,48,48,49,49,50,50,51,51,52,52,53,53,54,54,55,55,56,56,57,57,59,59],"right_children":[2,4,6,8,10,12,14,16,18,20,22,24,26,28,30,32,34,36,38,40,42,44,46,-1,48,50,52,54,56,58,60,62,64,66,68,70,72,-1,-1,74,-1,-1,76,78,80,82,-1,84,86,88,90,92,94,96,98,100,102,104,-1,106,-1,-1,-1,-1,-1,-1,-1,-1,-1,-1,-1,-1,-1,-1,-1,-1,-1,-1,-1,-1,-1,-1,-1,-1,-1,-1,-1,-1,-1,-1,-1,-1,-1,-1,-1,-1,-1,-1,-1,-1,-1,-1,-1,-1,-1,-1,-1],"split_conditions":[2.012461E1,8.648501E0,4.0193334E0,2.1920503E2,2.469524E2,6.055668E1,2.9620802E1,4.000864E1,2.0018072E1,7.928177E0,2.1613081E1,2.0929594E1,2.1629375E2,8.990167E0,1.1600001E1,1.539184E1,1.964228E1,1.2904882E1,6.658918E0,1.6840416E1,8.4963045E0,1.4689588E1,1.57908325E1,-5.613421E0,2.4776669E0,2.0763148E2,2.4776669E0,2.723293E2,2.1940414E1,3.5447684E2,3.1946793E2,1.2591335E1,2.422345E0,1.5941944E1,6.724998E-2,3.519155E2,1.6179987E1,1.5546107E1,3.1277997E0,6.8674324E1,7.6383457E0,-3.7267003E0,1.4477664E1,1.8208916E1,1.5124284E1,2.3596415E1,5.212153E0,2.240167E0,1.549605E1,2.1897945E1,7.0000005E-1,4E0,3.6526663E0,2.063023E1,5.7547507E0,4.7999988E0,1.0002868E2,4.4140755E1,4.334743E0,1.8516098E2,1.9487324E0,5.3915877E0,6.475077E-1,5.307614E0,-2.3062348E0,3.1258714E0,1.5184956E0,1.1237227E1,4.629893E0,1.301101E0,1.0898754E1,-1.6628613E0,2.9474235E-1,-1.502742E0,3.435953E0,8.548797E-1,4.8707604E-2,9.0771884E-1,-1.4139196E0,-3.9084985E0,-7.2476417E-1,7.447964E-1,-4.3247855E-1,-9.6230537E-1,2.5675588E0,-1.3323136E-1,-3.3389027E0,5.4148145E0,1.0267081E0,3.103934E0,1.0214607E1,-2.6948148E-1,9.239256E0,-2.2255297E0,1.6974524E0,-1.8880354E0,7.654017E-1,-2.8101096E0,-3.1513646E-1,-6.8028975E-1,-1.4924407E0,-2.894688E-1,2.2999833E0,-1.178985E0,9.9354364E-2,-4.288018E0,-2.225069E0],"split_indices":[2,0,0,3,3,3,2,3,2,2,0,2,3,0,1,2,2,2,0,0,2,2,2,0,0,3,0,3,0,3,3,3,3,2,0,3,2,0,0,3,0,0,0,0,2,0,0,0,3,2,1,1,0,2,0,1,3,2,0,3,0,0,0,0,0,0,0,0,0,0,0,0,0,0,0,0,0,0,0,0,0,0,0,0,0,0,0,0,0,0,0,0,0,0,0,0,0,0,0,0,0,0,0,0,0,0,0],"split_type":[0,0,0,0,0,0,0,0,0,0,0,0,0,0,0,0,0,0,0,0,0,0,0,0,0,0,0,0,0,0,0,0,0,0,0,0,0,0,0,0,0,0,0,0,0,0,0,0,0,0,0,0,0,0,0,0,0,0,0,0,0,0,0,0,0,0,0,0,0,0,0,0,0,0,0,0,0,0,0,0,0,0,0,0,0,0,0,0,0,0,0,0,0,0,0,0,0,0,0,0,0,0,0,0,0,0,0],"sum_hessian":[3.167E3,1.532E3,1.635E3,5.62E2,9.7E2,1.31E2,1.504E3,3.76E2,1.86E2,6.76E2,2.94E2,2.2E1,1.09E2,9.69E2,5.35E2,4.9E1,3.27E2,1.84E2,2E0,6E0,6.7E2,2.9E2,4E0,2E0,2E1,7.4E1,3.5E1,3.19E2,6.5E2,4.73E2,6.2E1,2.6E1,2.3E1,3.18E2,9E0,4.5E1,1.39E2,1E0,1E0,4E0,2E0,5E0,6.65E2,8.8E1,2.02E2,2E0,2E0,1.4E1,6E0,6.6E1,8E0,9E0,2.6E1,2.45E2,7.4E1,6.32E2,1.8E1,4.72E2,1E0,6.1E1,1E0,7E0,1.9E1,1E0,2.2E1,2.03E2,1.15E2,2E0,7E0,4.4E1,1E0,4.9E1,9E1,1E0,3E0,2.46E2,4.19E2,6E1,2.8E1,1.6E1,1.86E2,1E0,1E0,1.2E1,2E0,2E0,4E0,1.1E1,5.5E1,4E0,4E0,8E0,1E0,2.3E1,3E0,1.3E1,2.32E2,2.7E1,4.7E1,5.06E2,1.26E2,5E0,1.3E1,4.34E2,3.8E1,3E0,5.8E1],"tree_param":{"num_deleted":"0","num_feature":"4","num_nodes":"107","size_leaf_vector":"1"}},{"base_weights":[6.9954105E-2,2.9945614E0,-7.683905E-1,4.7656617E0,-6.9156677E-1,1.1796303E0,-1.6351233E0,8.071664E0,3.0237827E0,4.3877187E0,-2.237272E0,1.6387179E0,-1.9704182E0,8.2098E-2,-2.0851443E0,3.6526237E0,1.0936159E1,-2.1311216E0,4.2248435E0,2.368268E0,2.0148611E1,-2.739648E0,4.6777167E0,1.4436339E0,1.9714645E1,-9.654923E0,1.5094574E-1,-1.6242952E0,3.1583338E0,2.7801198E-1,-2.547565E0,1.343249E1,2.544165E-1,1.1703106E1,-5.823076E0,1.5995136E0,-5.23193E0,-1.045383E1,4.8043633E0,3.8652537E0,-1.1578257E1,2.7067455E1,-2.1668415E0,-3.9225593E0,3.3389422E-1,2.7989073E0,3.65083E-1,1.4215961E1,-3.865773E0,6.0937862E0,-1.2618252E1,-1.5138248E0,6.115655E0,-4.6336694E0,3.1616151E0,5.746419E0,-3.5433931E0,-1.0459685E1,7.2829825E-1,-2.6325524E0,3.1714652E0,4.9207344E0,-1.768438E0,-8.692711E-1,3.5079172E0,6.1776476E0,3.0509531E0,1.2850647E-1,-3.0400445E0,-1.8425608E0,1.6769223E0,1.3116921E0,-2.0122266E0,4.5130005E-1,-4.089424E0,1.3628533E0,7.341933E0,6.7820415E0,8.7765557E-1,-4.5012555E0,3.1881753E-1,-5.204533E-1,1.0410523E1,-1.9269176E-1,-1.6207943E0,-5.7443047E-1,5.0305305E0,1.0803494E0,-2.0117135E0,-1.1122185E0,4.5943204E-1,-1.6478291E-1,2.54737E0,-4.366936E0,5.774704E-1,4.0357614E0,-9.2709935E-1,-2.0132413E0,4.116594E0,7.864916E-1,-1.7150208E0,2.2746807E-1,3.133968E0,3.3425667E0,5.2298284E-1,1.9675107E0,-1.8623701E0,-4.1664157E0,-8.10664E-1,7.398185E-1,-3.9456767E-1,-6.1828804E-1,-1.0895947E0,-1.8838478E0,4.376619E0],"categories":[],"categories_nodes":[],"categories_segments":[],"categories_sizes":[],"default_left":[0,0,0,0,0,0,0,0,0,0,0,0,0,0,0,0,0,0,0,0,0,0,0,0,0,0,0,0,0,0,0,0,0,0,0,0,0,0,0,0,0,0,0,0,0,0,0,0,0,0,0,0,0,0,0,0,0,0,0,0,0,0,0,0,0,0,0,0,0,0,0,0,0,0,0,0,0,0,0,0,0,0,0,0,0,0,0,0,0,0,0,0,0,0,0,0,0,0,0,0,0,0,0,0,0,0,0,0,0,0,0,0,0,0,0],"id":5,"left_children":[1,3,5,7,9,11,13,15,17,19,21,23,25,27,29,31,33,35,37,39,41,43,-1,45,47,49,51,53,55,57,59,61,63,65,67,69,71,73,75,77,79,81,-1,83,85,87,89,-1,-1,91,93,95,97,99,101,103,105,107,109,111,113,-1,-1,-1,-1,-1,-1,-1,-1,-1,-1,-1,-1,-1,-1,-1,-1,-1,-1,-1,-1,-1,-1,-1,-1,-1,-1,-1,-1,-1,-1,-1,-1,-1,-1,-1,-1,-1,-1,-1,-1,-1,-1,-1,-1,-1,-1,-1,-1,-1,-1,-1,-1,-1,-1],"loss_changes":[7.7696934E3,4.612419E3,4.160491E3,2.7224727E3,1.8155646E3,1.1008553E3,1.3177705E3,2.0360186E3,1.9530889E3,1.6710132E3,1.6281409E3,2.3094922E3,1.5827157E3,1.8686202E3,1.4770444E3,2.190027E3,1.3406406E3,7.024475E2,2.2194023E3,1.0677627E3,1.3317744E3,6.3029065E2,0E0,9.593357E2,6.9254517E3,1.0569335E3,7.738583E2,3.312844E3,2.2231313E3,1.080996E3,5.5758057E2,1.0725098E3,1.8366035E3,1.0853594E3,1.3907176E2,8.992479E2,4.9696887E2,4.0048682E2,1.1541841E3,7.264078E2,2.3248077E2,1.1596274E3,0E0,6.0341296E2,1.8429386E3,2.2430679E3,1.7489141E3,0E0,0E0,6.836958E1,5.353955E2,1.4808412E3,1.7506428E3,1.1229624E3,1.5503401E3,1.9676692E3,1.0096974E3,2.0183075E2,7.6319183E2,6.289053E2,1.9259792E3,0E0,0E0,0E0,0E0,0E0,0E0,0E0,0E0,0E0,0E0,0E0,0E0,0E0,0E0,0E0,0E0,0E0,0E0,0E0,0E0,0E0,0E0,0E0,0E0,0E0,0E0,0E0,0E0,0E0,0E0,0E0,0E0,0E0,0E0,0E0,0E0,0E0,0E0,0E0,0E0,0E0,0E0,0E0,0E0,0E0,0E0,0E0,0E0,0E0,0E0,0E0,0E0,0E0,0E0],"parents":[2147483647,0,0,1,1,2,2,3,3,4,4,5,5,6,6,7,7,8,8,9,9,10,10,11,11,12,12,13,13,14,14,15,15,16,16,17,17,18,18,19,19,20,20,21,21,23,23,24,24,25,25,26,26,27,27,28,28,29,29,30,30,31,31,32,32,33,33,34,34,35,35,36,36,37,37,38,38,39,39,40,40,41,41,43,43,44,44,45,45,46,46,49,49,50,50,51,51,52,52,53,53,54,54,55,55,56,56,57,57,58,58,59,59,60,60],"right_children":[2,4,6,8,10,12,14,16,18,20,22,24,26,28,30,32,34,36,38,40,42,44,-1,46,48,50,52,54,56,58,60,62,64,66,68,70,72,74,76,78,80,82,-1,84,86,88,90,-1,-1,92,94,96,98,100,102,104,106,108,110,112,114,-1,-1,-1,-1,-1,-1,-1,-1,-1,-1,-1,-1,-1,-1,-1,-1,-1,-1,-1,-1,-1,-1,-1,-1,-1,-1,-1,-1,-1,-1,-1,-1,-1,-1,-1,-1,-1,-1,-1,-1,-1,-1,-1,-1,-1,-1,-1,-1,-1,-1,-1,-1,-1,-1],"split_conditions":[6.0693326E0,2.2693312E2,1.7377226E1,1.5941944E1,1E-1,3.0969904E2,1.7469711E2,1.2261158E1,5.380486E1,3.519155E2,6.0318336E0,3.0407007E2,3.2247983E2,9.468718E1,1E-1,9.178235E0,5.8318334E0,2.012461E1,1.6279802E1,5.9089165E0,3.5790662E2,3.4E0,4.6777167E0,1.4121415E1,1.7415167E1,9.298749E0,1.8700584E1,1E-1,4.5000005E0,1.8234259E2,2.0569588E1,1.6775319E2,1.7897394E2,1.2904882E1,1E-1,1.8075441E1,-9.3275E-1,-7.2649974E-1,2.2385959E2,-1.7035834E0,2.2530937E1,-7.2649974E-1,-2.1668415E0,1.8584509E1,3.208335E2,3.2999997E0,1.59297495E1,1.4215961E1,-3.865773E0,6.271666E0,1.662249E1,3.2841702E2,3.3570508E2,8.044583E0,6.3736813E1,1.417889E2,1.215728E2,2.1398056E1,2.2104116E1,3.9999995E0,2.3118039E2,4.9207344E0,-1.768438E0,-8.692711E-1,3.5079172E0,6.1776476E0,3.0509531E0,1.2850647E-1,-3.0400445E0,-1.8425608E0,1.6769223E0,1.3116921E0,-2.0122266E0,4.5130005E-1,-4.089424E0,1.3628533E0,7.341933E0,6.7820415E0,8.7765557E-1,-4.5012555E0,3.1881753E-1,-5.204533E-1,1.0410523E1,-1.9269176E-1,-1.6207943E0,-5.7443047E-1,5.0305305E0,1.0803494E0,-2.0117135E0,-1.1122185E0,4.5943204E-1,-1.6478291E-1,2.54737E0,-4.366936E0,5.774704E-1,4.0357614E0,-9.2709935E-1,-2.0132413E0,4.116594E0,7.864916E-1,-1.7150208E0,2.2746807E-1,3.133968E0,3.3425667E0,5.2298284E-1,1.9675107E0,-1.8623701E0,-4.1664157E0,-8.10664E-1,7.398185E-1,-3.9456767E-1,-6.1828804E-1,-1.0895947E0,-1.8838478E0,4.376619E0],"split_indices":[0,3,2,2,1,3,3,2,3,3,0,3,3,3,1,2,0,2,2,0,3,1,0,0,0,0,0,1,1,3,0,3,3,2,1,2,0,0,3,0,2,0,0,2,3,1,0,0,0,0,2,3,3,0,3,3,3,2,2,1,3,0,0,0,0,0,0,0,0,0,0,0,0,0,0,0,0,0,0,0,0,0,0,0,0,0,0,0,0,0,0,0,0,0,0,0,0,0,0,0,0,0,0,0,0,0,0,0,0,0,0,0,0,0,0],"split_type":[0,0,0,0,0,0,0,0,0,0,0,0,0,0,0,0,0,0,0,0,0,0,0,0,0,0,0,0,0,0,0,0,0,0,0,0,0,0,0,0,0,0,0,0,0,0,0,0,0,0,0,0,0,0,0,0,0,0,0,0,0,0,0,0,0,0,0,0,0,0,0,0,0,0,0,0,0,0,0,0,0,0,0,0,0,0,0,0,0,0,0,0,0,0,0,0,0,0,0,0,0,0,0,0,0,0,0,0,0,0,0,0,0,0,0],"sum_hessian":[3.167E3,7.05E2,2.462E3,4.76E2,2.29E2,7.58E2,1.704E3,1.63E2,3.13E2,5.3E1,1.76E2,6.62E2,9.6E1,3.54E2,1.35E3,6.5E1,9.8E1,5.9E1,2.54E2,4.8E1,5E0,1.72E2,4E0,6.56E2,6E0,2E1,7.6E1,2.28E2,1.26E2,2.21E2,1.129E3,1.6E1,4.9E1,9.4E1,4E0,2.7E1,3.2E1,9E0,2.45E2,4.4E1,4E0,4E0,1E0,1.24E2,4.8E1,2.9E2,3.66E2,3E0,3E0,3E0,1.7E1,6E1,1.6E1,1.4E2,8.8E1,9.1E1,3.5E1,8E0,2.13E2,1.113E3,1.6E1,1.4E1,2E0,3.9E1,1E1,1.2E1,8.2E1,2E0,2E0,9E0,1.8E1,4E0,2.8E1,2E0,7E0,2.43E2,2E0,1E0,4.3E1,3E0,1E0,1E0,3E0,3.9E1,8.5E1,4.3E1,5E0,2.68E2,2.2E1,8.1E1,2.85E2,1E0,2E0,1.5E1,2E0,5E0,5.5E1,6E0,1E1,1.8E1,1.22E2,6.7E1,2.1E1,3.8E1,5.3E1,7E0,2.8E1,5E0,3E0,1.15E2,9.8E1,7.1E2,4.03E2,9E0,7E0],"tree_param":{"num_deleted":"0","num_feature":"4","num_nodes":"115","size_leaf_vector":"1"}},{"base_weights":[6.473713E-2,4.7783256E0,-2.3087178E-1,1.1606653E0,6.8839006E0,3.7369937E-1,-1.6034989E0,6.3575845E0,-7.8786435E0,8.503315E0,-2.5852509E0,1.0894798E0,-1.2176287E0,-1.6831273E0,1.3177719E1,4.418575E0,2.5127789E1,3.252385E0,-1.00503025E1,7.697048E0,2.2444227E1,8.342514E0,-4.4726286E0,2.069532E0,-2.9168698E-1,-1.5006672E0,4.4185076E0,-3.4302074E-1,-2.4586272E0,-2.0546691E0,5.96898E0,-3.1832912E0,7.218698E0,1.1373768E-1,9.975291E0,8.78024E0,-1.0078797E0,-1.54879465E1,-4.2282705E0,6.4311295E0,6.875572E0,1.2246355E1,-3.4141376E0,3.3369033E0,4.1722813E-1,-6.266174E0,-4.390246E-1,-5.542649E-1,2.8473606E0,-3.5283608E0,3.393352E-1,8.594911E-1,-2.1439042E0,1.9025616E1,8.7769425E-1,-9.0953606E-1,7.732539E0,-2.6531515E0,2.5516002E0,5.2862096E-1,-4.0543594E0,6.466192E-1,5.8068504E0,3.1389017E0,8.122067E-1,-2.705861E0,-6.4338393E0,-4.28484E-1,-3.645645E0,1.3791146E0,3.6002464E0,1.0249856E0,-2.5613475E0,-5.6494143E-2,-2.278766E0,-1.8851197E0,1.2162787E0,2.3527762E-1,-1.6980784E0,2.0752041E0,6.75173E-1,-3.9769204E0,-4.7615334E-1,-3.217198E-1,6.938324E-1,-1.2501507E-1,4.94127E0,-7.036048E-1,3.025467E0,1.0361481E1,7.90416E-1,3.7108407E0,-1.2021425E0,3.1443626E-1,-6.016753E-1,4.492494E0,1.3477689E-1,-1.051019E0,-4.8384076E-1,-5.48529E-1,2.724441E0],"categories":[],"categories_nodes":[],"categories_segments":[],"categories_sizes":[],"default_left":[0,0,0,0,0,0,0,0,0,0,0,0,0,0,0,0,0,0,0,0,0,0,0,0,0,0,0,0,0,0,0,0,0,0,0,0,0,0,0,0,0,0,0,0,0,0,0,0,0,0,0,0,0,0,0,0,0,0,0,0,0,0,0,0,0,0,0,0,0,0,0,0,0,0,0,0,0,0,0,0,0,0,0,0,0,0,0,0,0,0,0,0,0,0,0,0,0,0,0,0,0],"id":6,"left_children":[1,3,5,7,9,11,13,15,17,19,21,23,25,27,29,31,33,35,37,39,41,43,45,47,49,51,53,55,57,-1,-1,59,61,-1,-1,63,-1,65,67,-1,69,-1,71,-1,-1,73,75,77,79,81,83,85,87,89,91,93,95,97,99,-1,-1,-1,-1,-1,-1,-1,-1,-1,-1,-1,-1,-1,-1,-1,-1,-1,-1,-1,-1,-1,-1,-1,-1,-1,-1,-1,-1,-1,-1,-1,-1,-1,-1,-1,-1,-1,-1,-1,-1,-1,-1],"loss_changes":[4.4153267E3,1.416437E3,2.4752144E3,3.338448E3,1.8314517E3,2.3602815E3,1.0956082E3,1.5267734E3,6.611803E2,9.624956E2,4.0855975E2,1.9349204E3,1.0323723E3,9.427981E2,8.090518E2,9.16998E2,7.915449E2,2.1224854E2,6.3099194E2,9.474585E2,2.5153596E3,4.251854E1,1.1300021E2,1.7077405E3,1.2143906E3,9.3246313E2,1.5866538E3,1.5350591E3,5.671709E2,0E0,0E0,6.3691406E2,1.8634052E3,0E0,0E0,2.3306122E0,0E0,2.3050562E2,2.4888478E2,0E0,1.0308857E3,0E0,1.3416644E2,0E0,0E0,8.746939E1,1.8304759E2,1.3166625E3,1.5510747E3,1.8106986E3,1.3898945E3,2.6367532E3,1.2110264E3,1.4345994E3,1.5090874E3,6.737019E2,1.1537445E3,4.8439087E2,6.458274E2,0E0,0E0,0E0,0E0,0E0,0E0,0E0,0E0,0E0,0E0,0E0,0E0,0E0,0E0,0E0,0E0,0E0,0E0,0E0,0E0,0E0,0E0,0E0,0E0,0E0,0E0,0E0,0E0,0E0,0E0,0E0,0E0,0E0,0E0,0E0,0E0,0E0,0E0,0E0,0E0,0E0,0E0],"parents":[2147483647,0,0,1,1,2,2,3,3,4,4,5,5,6,6,7,7,8,8,9,9,10,10,11,11,12,12,13,13,14,14,15,15,16,16,17,17,18,18,19,19,20,20,21,21,22,22,23,23,24,24,25,25,26,26,27,27,28,28,31,31,32,32,35,35,37,37,38,38,40,40,42,42,45,45,46,46,47,47,48,48,49,49,50,50,51,51,52,52,53,53,54,54,55,55,56,56,57,57,58,58],"right_children":[2,4,6,8,10,12,14,16,18,20,22,24,26,28,30,32,34,36,38,40,42,44,46,48,50,52,54,56,58,-1,-1,60,62,-1,-1,64,-1,66,68,-1,70,-1,72,-1,-1,74,76,78,80,82,84,86,88,90,92,94,96,98,100,-1,-1,-1,-1,-1,-1,-1,-1,-1,-1,-1,-1,-1,-1,-1,-1,-1,-1,-1,-1,-1,-1,-1,-1,-1,-1,-1,-1,-1,-1,-1,-1,-1,-1,-1,-1,-1,-1,-1,-1,-1,-1],"split_conditions":[2.0630832E0,8.142384E1,2.5264202E1,6.29972E1,2.342579E2,2.4461565E2,3.5447684E2,1.7E0,1.2904882E1,1.9422499E0,1.0691453E1,1.4194335E1,7.3E0,8.186251E0,3.0130835E0,1.481259E1,-3.2806666E0,7.38251E1,2.19718E1,8.891344E0,1E-1,1.6047502E0,3.402912E2,6.055668E1,1.5504749E1,6.7485003E0,2.5596376E2,8.044583E0,1.9250586E1,-2.0546691E0,5.96898E0,1E-1,5.8704998E1,1.1373768E-1,9.975291E0,-2.314E0,-1.0078797E0,1.6179987E1,8.422499E-1,6.4311295E0,1.9134262E1,1.2246355E1,3E-1,3.3369033E0,4.1722813E-1,1.3004921E1,1.4168641E1,4.935809E1,1.1966954E1,2.5842283E1,3E-1,6.534167E0,2.502971E1,7.8999996E0,1.784816E1,2.9275326E1,1.2000002E0,2.332517E2,2.1E0,5.2862096E-1,-4.0543594E0,6.466192E-1,5.8068504E0,3.1389017E0,8.122067E-1,-2.705861E0,-6.4338393E0,-4.28484E-1,-3.645645E0,1.3791146E0,3.6002464E0,1.0249856E0,-2.5613475E0,-5.6494143E-2,-2.278766E0,-1.8851197E0,1.2162787E0,2.3527762E-1,-1.6980784E0,2.0752041E0,6.75173E-1,-3.9769204E0,-4.7615334E-1,-3.217198E-1,6.938324E-1,-1.2501507E-1,4.94127E0,-7.036048E-1,3.025467E0,1.0361481E1,7.90416E-1,3.7108407E0,-1.2021425E0,3.1443626E-1,-6.016753E-1,4.492494E0,1.3477689E-1,-1.051019E0,-4.8384076E-1,-5.48529E-1,2.724441E0],"split_indices":[0,3,2,3,3,3,3,1,2,0,2,0,1,0,0,2,0,3,2,2,1,0,3,3,0,0,3,0,0,0,0,1,3,0,0,0,0,2,0,0,2,0,1,0,0,2,2,3,2,3,1,0,2,1,2,2,1,3,1,0,0,0,0,0,0,0,0,0,0,0,0,0,0,0,0,0,0,0,0,0,0,0,0,0,0,0,0,0,0,0,0,0,0,0,0,0,0,0,0,0,0],"split_type":[0,0,0,0,0,0,0,0,0,0,0,0,0,0,0,0,0,0,0,0,0,0,0,0,0,0,0,0,0,0,0,0,0,0,0,0,0,0,0,0,0,0,0,0,0,0,0,0,0,0,0,0,0,0,0,0,0,0,0,0,0,0,0,0,0,0,0,0,0,0,0,0,0,0,0,0,0,0,0,0,0,0,0,0,0,0,0,0,0,0,0,0,0,0,0,0,0,0,0,0,0],"sum_hessian":[3.167E3,1.86E2,2.981E3,6.9E1,1.17E2,2.07E3,9.11E2,4.4E1,2.5E1,1E2,1.7E1,1.428E3,6.42E2,9.07E2,4E0,4.1E1,3E0,4E0,2.1E1,9.6E1,4E0,2E0,1.5E1,8.35E2,5.93E2,6.12E2,3E1,3.33E2,5.74E2,1E0,3E0,1.1E1,3E1,1E0,2E0,2E0,2E0,1E1,1.1E1,4E0,9.2E1,2E0,2E0,1E0,1E0,1E1,5E0,1.91E2,6.44E2,9.6E1,4.97E2,1.31E2,4.81E2,5E0,2.5E1,3.12E2,2.1E1,5.53E2,2.1E1,8E0,3E0,2.2E1,8E0,1E0,1E0,6E0,4E0,9E0,2E0,6.5E1,2.7E1,1E0,1E0,2E0,8E0,2E0,3E0,1.52E2,3.9E1,8.1E1,5.63E2,1.5E1,8.1E1,2.9E2,2.07E2,1.22E2,9E0,4.74E2,7E0,2E0,3E0,7E0,1.8E1,1.12E2,2E2,1E1,1.1E1,3.03E2,2.5E2,1.3E1,8E0],"tree_param":{"num_deleted":"0","num_feature":"4","num_nodes":"101","size_leaf_vector":"1"}},{"base_weights":[6.1893534E-2,9.686881E-1,-7.878485E-1,3.5536885E0,3.5242993E-1,-5.1451725E-1,-2.6827471E0,2.5994692E0,1.1314944E1,2.3856527E-1,7.280552E0,-7.044116E-1,4.5348825E0,-6.060338E0,-2.0725877E0,3.3999126E0,-6.3599505E0,1.5859581E1,2.4189186E0,5.3782985E-3,3.748572E0,2.8498356E1,1.9495416E-1,-3.192328E-1,-2.3624158E0,9.328146E0,1.6738502E0,-7.145926E0,1.9361374E0,2.0642943E0,-2.936771E0,2.5826645E0,1.4833205E1,-9.084712E0,-4.5602798E-1,1.1933437E1,1.063159E1,-3.2410998E0,6.1438026E0,9.378919E0,-7.7139996E-2,8.703927E0,3.0248706E0,-1.2184353E0,1.1296102E1,1.6348917E1,-3.2805347E0,4.2853296E-1,-1.5972495E0,-3.0357602E0,5.0599346E0,1.9584112E1,-3.994489E-1,-8.170996E0,4.461675E0,1.3288901E1,3.870543E-1,-4.4006996E0,-2.6719553E0,1.034544E0,-2.7314749E0,3.2993596E0,1.0854497E1,-3.205849E0,-6.027549E-1,2.2622392E0,-3.1014159E0,4.9341616E-1,4.370234E0,1.5117375E0,-2.8803313E0,4.9774723E0,-1.6763867E0,1.4709283E-1,-4.2380354E-1,5.283073E-1,3.319131E0,1.0773234E0,6.27969E0,-4.626057E-2,-2.6631281E0,3.2376103E-2,1.3936911E0,-3.3388555E-1,-2.1464884E0,-1.4922752E0,-4.593189E-1,4.4670114E-1,5.07099E0,8.000851E0,-1.3136164E0,7.7176654E-1,-1.5813054E0,2.4994776E-1,-2.6773963E0,-9.665566E-2,2.1044095E0,5.0357976E0,4.1964456E-1,-2.5932038E0,6.757198E-1,9.130042E-1,-9.9325794E-1],"categories":[],"categories_nodes":[],"categories_segments":[],"categories_sizes":[],"default_left":[0,0,0,0,0,0,0,0,0,0,0,0,0,0,0,0,0,0,0,0,0,0,0,0,0,0,0,0,0,0,0,0,0,0,0,0,0,0,0,0,0,0,0,0,0,0,0,0,0,0,0,0,0,0,0,0,0,0,0,0,0,0,0,0,0,0,0,0,0,0,0,0,0,0,0,0,0,0,0,0,0,0,0,0,0,0,0,0,0,0,0,0,0,0,0,0,0,0,0,0,0,0,0],"id":7,"left_children":[1,3,5,7,9,11,13,15,17,19,21,23,25,27,29,31,33,35,37,39,41,43,45,47,49,-1,51,53,-1,55,57,59,61,63,65,67,-1,69,-1,71,73,-1,75,-1,-1,77,79,81,83,85,87,89,91,93,95,97,99,-1,101,-1,-1,-1,-1,-1,-1,-1,-1,-1,-1,-1,-1,-1,-1,-1,-1,-1,-1,-1,-1,-1,-1,-1,-1,-1,-1,-1,-1,-1,-1,-1,-1,-1,-1,-1,-1,-1,-1,-1,-1,-1,-1,-1,-1],"loss_changes":[2.4418381E3,2.440859E3,8.459614E2,2.1553396E3,9.7567084E2,1.3753127E3,4.119784E2,1.9149015E3,1.2553711E3,9.9853503E2,3.0012607E3,8.805526E2,3.8992249E3,4.6725916E2,6.352666E2,2.2322434E3,3.4976636E2,1.1913696E3,1.2930435E3,8.86368E2,1.3018206E3,1.6434048E3,9.5192E2,1.0719761E3,1.314788E3,0E0,1.7902227E3,3.8151562E2,0E0,5.7847363E2,4.1440918E2,2.3385947E3,9.12136E2,1.4849622E2,7.1015576E2,4.9095166E2,0E0,5.7500366E2,0E0,1.1722218E3,8.616107E2,0E0,7.425115E2,0E0,0E0,1.00252625E2,2.4358502E2,9.5675476E2,1.106354E3,6.8950903E2,9.0525134E2,9.657084E2,6.506061E2,1.9065942E2,3.8899952E1,1.4284235E2,4.911593E2,0E0,5.3589685E2,0E0,0E0,0E0,0E0,0E0,0E0,0E0,0E0,0E0,0E0,0E0,0E0,0E0,0E0,0E0,0E0,0E0,0E0,0E0,0E0,0E0,0E0,0E0,0E0,0E0,0E0,0E0,0E0,0E0,0E0,0E0,0E0,0E0,0E0,0E0,0E0,0E0,0E0,0E0,0E0,0E0,0E0,0E0,0E0],"parents":[2147483647,0,0,1,1,2,2,3,3,4,4,5,5,6,6,7,7,8,8,9,9,10,10,11,11,12,12,13,13,14,14,15,15,16,16,17,17,18,18,19,19,20,20,21,21,22,22,23,23,24,24,26,26,27,27,29,29,30,30,31,31,32,32,33,33,34,34,35,35,37,37,39,39,40,40,42,42,45,45,46,46,47,47,48,48,49,49,50,50,51,51,52,52,53,53,54,54,55,55,56,56,58,58],"right_children":[2,4,6,8,10,12,14,16,18,20,22,24,26,28,30,32,34,36,38,40,42,44,46,48,50,-1,52,54,-1,56,58,60,62,64,66,68,-1,70,-1,72,74,-1,76,-1,-1,78,80,82,84,86,88,90,92,94,96,98,100,-1,102,-1,-1,-1,-1,-1,-1,-1,-1,-1,-1,-1,-1,-1,-1,-1,-1,-1,-1,-1,-1,-1,-1,-1,-1,-1,-1,-1,-1,-1,-1,-1,-1,-1,-1,-1,-1,-1,-1,-1,-1,-1,-1,-1,-1],"split_conditions":[2.012461E1,4.8300004E0,8E0,4.450583E0,1.9969458E1,7E0,1.8082285E2,4.196417E0,1.9530618E2,2.1298502E1,9.298749E0,2.6598175E2,4.511E0,1.7440416E1,2.6299719E1,1.9319628E1,4E-1,1.7790352E2,4.74875E0,7.928177E0,8.891344E0,4.000864E1,1.2591335E1,1.2423751E1,1.7375834E1,9.328146E0,2.2206486E1,2.2900002E1,1.9361374E0,1.8516098E2,1.8636656E2,1.8864824E1,3.014546E2,2.3171762E2,8.142384E1,1.3004921E1,1.063159E1,4.7089167E0,6.1438026E0,1.2967818E2,1.6644583E1,8.703927E0,2.3502513E2,-1.2184353E0,1.1296102E1,1.2732082E1,2.5995508E2,2.5596376E2,3.5031162E1,2.4951921E1,3.5038205E2,1.7588083E1,1.1446667E1,1.9422499E0,8.422499E-1,1.228625E1,1.9639244E2,-4.4006996E0,5.6318336E0,1.034544E0,-2.7314749E0,3.2993596E0,1.0854497E1,-3.205849E0,-6.027549E-1,2.2622392E0,-3.1014159E0,4.9341616E-1,4.370234E0,1.5117375E0,-2.8803313E0,4.9774723E0,-1.6763867E0,1.4709283E-1,-4.2380354E-1,5.283073E-1,3.319131E0,1.0773234E0,6.27969E0,-4.626057E-2,-2.6631281E0,3.2376103E-2,1.3936911E0,-3.3388555E-1,-2.1464884E0,-1.4922752E0,-4.593189E-1,4.4670114E-1,5.07099E0,8.000851E0,-1.3136164E0,7.7176654E-1,-1.5813054E0,2.4994776E-1,-2.6773963E0,-9.665566E-2,2.1044095E0,5.0357976E0,4.1964456E-1,-2.5932038E0,6.757198E-1,9.130042E-1,-9.9325794E-1],"split_indices":[2,0,1,0,2,1,3,0,3,0,0,3,0,0,2,2,1,3,0,2,2,3,3,0,0,0,2,1,0,3,3,2,3,3,3,2,0,0,0,3,0,0,3,0,0,0,3,3,2,2,3,0,0,0,0,0,3,0,0,0,0,0,0,0,0,0,0,0,0,0,0,0,0,0,0,0,0,0,0,0,0,0,0,0,0,0,0,0,0,0,0,0,0,0,0,0,0,0,0,0,0,0,0],"split_type":[0,0,0,0,0,0,0,0,0,0,0,0,0,0,0,0,0,0,0,0,0,0,0,0,0,0,0,0,0,0,0,0,0,0,0,0,0,0,0,0,0,0,0,0,0,0,0,0,0,0,0,0,0,0,0,0,0,0,0,0,0,0,0,0,0,0,0,0,0,0,0,0,0,0,0,0,0,0,0,0,0,0,0,0,0,0,0,0,0,0,0,0,0,0,0,0,0,0,0,0,0,0,0],"sum_hessian":[3.167E3,1.532E3,1.635E3,2.94E2,1.238E3,1.43E3,2.05E2,2.63E2,3.1E1,1.219E3,1.9E1,1.379E3,5.1E1,3E1,1.75E2,2.42E2,2.1E1,2E1,1.1E1,1.144E3,7.5E1,4E0,1.5E1,1.12E3,2.59E2,4E0,4.7E1,2.8E1,2E0,3E1,1.45E2,2.27E2,1.5E1,1.4E1,7E0,1.8E1,2E0,9E0,2E0,9E0,1.135E3,1E0,7.4E1,1E0,3E0,2E0,1.3E1,7.07E2,4.13E2,2.38E2,2.1E1,4E0,4.3E1,2.6E1,2E0,3E0,2.7E1,2E0,1.43E2,2.12E2,1.5E1,1.4E1,1E0,1.1E1,3E0,4E0,3E0,4E0,1.4E1,4E0,5E0,6E0,3E0,7.97E2,3.38E2,6.5E1,9E0,1E0,1E0,9E0,4E0,6.58E2,4.9E1,3.81E2,3.2E1,1.03E2,1.35E2,1.7E1,4E0,3E0,1E0,2.7E1,1.6E1,2E0,2.4E1,1E0,1E0,2E0,1E0,4E0,2.3E1,1.4E1,1.29E2],"tree_param":{"num_deleted":"0","num_feature":"4","num_nodes":"103","size_leaf_vector":"1"}},{"base_weights":[6.752703E-2,4.6997995E0,-4.631721E-2,2.6370401E0,1.9762892E1,7.061196E-1,-5.5021775E-1,6.884197E0,-4.4885287E0,5.458465E0,1.0883643E1,1.4389492E0,-1.1197041E0,2.3274384E0,-1.0108746E0,4.4349394E0,1.5644177E1,-1.0275273E1,2.0886219E0,-6.170285E0,5.743193E0,-1.38912E-1,2.2799876E0,-4.5563493E0,-2.1711947E-1,-1.1167271E1,2.8077807E0,-1.1934617E0,2.8755305E0,1.3035185E1,1.8193359E0,5.255348E0,1.8172822E0,-1.325169E1,-2.2673874E0,4.5749E0,-4.1620083E0,-2.5075707E0,5.9184838E-2,1.157569E0,-5.8910313E0,9.035919E0,1.8012346E0,3.8167614E-1,-7.2390647E0,-1.1567508E0,3.0824938E0,-1.4419279E1,1.4317322E-1,9.974011E-1,4.7938147E0,4.3536787E0,-1.2774422E0,1.8687973E1,1.4165726E0,4.7370358E0,9.5407647E-1,-8.914015E-2,4.3777313E0,-4.175394E0,-1.0882611E0,4.578708E0,-3.1396244E0,2.4693189E0,-1.4385573E0,-7.489313E-2,1.3131894E0,-2.1494234E0,1.8388969E0,3.8931751E0,4.05722E-1,1.1813068E-1,7.667487E-1,1.2367377E0,-1.1891916E0,-2.5404317E0,8.3267236E-1,-4.2618752E-1,3.158022E0,6.5503526E0,6.329193E-1,-8.323254E-1,-4.769306E0,1.4658509E-1,-8.2157135E-2,1.2161535E-1,4.750543E0,5.060688E0,6.0171026E-1,2.6542318E0,-2.154508E0,-7.026328E-1,-2.3751222E-1,8.630479E0,1.936729E0,-5.415417E-1,1.7101116E0],"categories":[],"categories_nodes":[],"categories_segments":[],"categories_sizes":[],"default_left":[0,0,0,0,0,0,0,0,0,0,0,0,0,0,0,0,0,0,0,0,0,0,0,0,0,0,0,0,0,0,0,0,0,0,0,0,0,0,0,0,0,0,0,0,0,0,0,0,0,0,0,0,0,0,0,0,0,0,0,0,0,0,0,0,0,0,0,0,0,0,0,0,0,0,0,0,0,0,0,0,0,0,0,0,0,0,0,0,0,0,0,0,0,0,0,0,0],"id":8,"left_children":[1,3,5,7,9,11,13,15,17,19,-1,21,23,25,27,29,31,33,35,37,-1,39,41,43,45,47,49,51,53,55,57,-1,-1,59,61,63,-1,-1,-1,65,67,69,71,73,75,77,79,81,83,85,87,89,91,93,95,-1,-1,-1,-1,-1,-1,-1,-1,-1,-1,-1,-1,-1,-1,-1,-1,-1,-1,-1,-1,-1,-1,-1,-1,-1,-1,-1,-1,-1,-1,-1,-1,-1,-1,-1,-1,-1,-1,-1,-1,-1,-1],"loss_changes":[1.6708865E3,2.3093213E3,1.1731097E3,2.088812E3,1.92823E3,1.6620913E3,2.458712E3,8.532035E2,1.0110289E3,1.0729962E3,0E0,1.1760759E3,1.103274E3,1.6907683E3,1.1373837E3,7.636038E2,5.5540283E1,3.0364026E2,5.7938635E2,5.7385193E1,0E0,2.311191E3,1.8532207E3,9.8306445E2,8.8098456E2,3.3309937E2,8.868966E2,7.169177E2,1.6345447E3,1.6698083E2,7.6128467E2,0E0,0E0,1.3636963E1,8.782736E2,4.5057245E2,0E0,0E0,0E0,1.1473962E3,9.1663904E2,1.1332131E3,5.7357117E2,4.5525668E2,6.143071E2,6.9629126E2,1.1031346E3,7.640405E1,5.659928E-1,1.1443096E3,3.9388577E3,1.2557952E3,7.764502E2,5.5410425E2,9.3496783E2,0E0,0E0,0E0,0E0,0E0,0E0,0E0,0E0,0E0,0E0,0E0,0E0,0E0,0E0,0E0,0E0,0E0,0E0,0E0,0E0,0E0,0E0,0E0,0E0,0E0,0E0,0E0,0E0,0E0,0E0,0E0,0E0,0E0,0E0,0E0,0E0,0E0,0E0,0E0,0E0,0E0,0E0],"parents":[2147483647,0,0,1,1,2,2,3,3,4,4,5,5,6,6,7,7,8,8,9,9,11,11,12,12,13,13,14,14,15,15,16,16,17,17,18,18,19,19,21,21,22,22,23,23,24,24,25,25,26,26,27,27,28,28,29,29,30,30,33,33,34,34,35,35,39,39,40,40,41,41,42,42,43,43,44,44,45,45,46,46,47,47,48,48,49,49,50,50,51,51,52,52,53,53,54,54],"right_children":[2,4,6,8,10,12,14,16,18,20,-1,22,24,26,28,30,32,34,36,38,-1,40,42,44,46,48,50,52,54,56,58,-1,-1,60,62,64,-1,-1,-1,66,68,70,72,74,76,78,80,82,84,86,88,90,92,94,96,-1,-1,-1,-1,-1,-1,-1,-1,-1,-1,-1,-1,-1,-1,-1,-1,-1,-1,-1,-1,-1,-1,-1,-1,-1,-1,-1,-1,-1,-1,-1,-1,-1,-1,-1,-1,-1,-1,-1,-1,-1,-1],"split_conditions":[-3.0150005E-1,1.1000001E0,2E-1,1.6981165E1,-1.7035834E0,1.6188086E1,1.4672813E2,-7.2649974E-1,2.2530937E1,7.140938E1,1.0883643E1,8.967811E1,6.61116E1,1.00475E0,1.9250586E1,1.0137692E1,1.4386061E2,-9.3275E-1,8.676036E1,3.9999995E0,5.743193E0,7.140938E1,1.0778542E2,3.3308117E1,2.1298502E1,2.4023088E1,1.9000001E0,1.7318335E0,1.93235E1,-1.7035834E0,1E-1,5.255348E0,1.8172822E0,1E-1,1.5940056E2,2.808923E1,-4.1620083E0,-2.5075707E0,5.9184838E-2,5.521883E1,1E-1,8.831834E0,1.5273505E1,1.9046667E1,2.3004747E1,3.5038205E2,9.793059E0,3.472041E1,6.724998E-2,2.8277763E1,2.5999997E0,3.1E0,2.1325253E1,1.4264361E1,2.3673306E2,4.7370358E0,9.5407647E-1,-8.914015E-2,4.3777313E0,-4.175394E0,-1.0882611E0,4.578708E0,-3.1396244E0,2.4693189E0,-1.4385573E0,-7.489313E-2,1.3131894E0,-2.1494234E0,1.8388969E0,3.8931751E0,4.05722E-1,1.1813068E-1,7.667487E-1,1.2367377E0,-1.1891916E0,-2.5404317E0,8.3267236E-1,-4.2618752E-1,3.158022E0,6.5503526E0,6.329193E-1,-8.323254E-1,-4.769306E0,1.4658509E-1,-8.2157135E-2,1.2161535E-1,4.750543E0,5.060688E0,6.0171026E-1,2.6542318E0,-2.154508E0,-7.026328E-1,-2.3751222E-1,8.630479E0,1.936729E0,-5.415417E-1,1.7101116E0],"split_indices":[0,1,1,2,0,0,3,0,2,3,0,3,3,0,0,2,3,0,3,1,0,3,3,3,0,2,1,0,0,0,1,0,0,1,3,2,0,0,0,3,1,0,2,0,0,3,2,3,0,2,1,1,2,2,3,0,0,0,0,0,0,0,0,0,0,0,0,0,0,0,0,0,0,0,0,0,0,0,0,0,0,0,0,0,0,0,0,0,0,0,0,0,0,0,0,0,0],"split_type":[0,0,0,0,0,0,0,0,0,0,0,0,0,0,0,0,0,0,0,0,0,0,0,0,0,0,0,0,0,0,0,0,0,0,0,0,0,0,0,0,0,0,0,0,0,0,0,0,0,0,0,0,0,0,0,0,0,0,0,0,0,0,0,0,0,0,0,0,0,0,0,0,0,0,0,0,0,0,0,0,0,0,0,0,0,0,0,0,0,0,0,0,0,0,0,0,0],"sum_hessian":[3.167E3,7.5E1,3.092E3,6.7E1,8E0,1.24E3,1.852E3,4.2E1,2.5E1,5E0,3E0,8.85E2,3.55E2,2.55E2,1.597E3,3.4E1,8E0,1.3E1,1.2E1,3E0,2E0,3.08E2,5.77E2,7.3E1,2.82E2,8E0,2.47E2,1.526E3,7.1E1,7E0,2.7E1,6E0,2E0,9E0,4E0,1.1E1,1E0,2E0,1E0,2.52E2,5.6E1,3.7E1,5.4E2,2.6E1,4.7E1,2.2E2,6.2E1,6E0,2E0,1.3E2,1.17E2,2.2E1,1.504E3,5E0,6.6E1,5E0,2E0,2.4E1,3E0,8E0,1E0,1E0,3E0,8E0,3E0,1.76E2,7.6E1,5.1E1,5E0,2.4E1,1.3E1,1.89E2,3.51E2,1.4E1,1.2E1,4.2E1,5E0,2.16E2,4E0,2E0,6E1,1E0,5E0,1E0,1E0,1.26E2,4E0,2.1E1,9.6E1,1.6E1,6E0,4.7E2,1.034E3,2E0,3E0,3.8E1,2.8E1],"tree_param":{"num_deleted":"0","num_feature":"4","num_nodes":"97","size_leaf_vector":"1"}},{"base_weights":[6.460889E-2,1.3018891E0,-2.5036964E-1,1.0557449E0,7.606368E0,8.045156E-2,-9.240374E-1,-3.0077627E0,1.3262278E0,1.1447187E1,3.0945888E0,3.5090443E-1,-2.3163543E0,8.567538E0,-1.0265862E0,-5.820241E0,8.61812E0,1.924151E0,-6.2997615E-1,-1.1136842E0,1.7625454E1,-5.408053E0,4.4275257E-1,-7.1982336E0,-1.5897471E0,4.142412E0,-1.4350977E0,-2.9263978E0,-5.35588E-1,7.074915E0,-8.470266E0,-4.1382914E0,1.7099627E1,1.2473823E0,5.0047755E0,-2.3042347E0,2.8441577E0,2.617342E0,-6.1046343E0,6.3855104E0,4.4806913E-1,-7.3899875E0,6.3491163E0,1.0609609E0,-4.847822E-1,7.0072937E-1,-8.482319E0,2.8061738E0,-1.7994198E0,-3.40432E0,1.6955075E0,-3.2012217E0,4.004281E0,-3.015895E-1,-6.4296474E0,5.9592134E-1,2.7367709E0,-2.9406366E0,1.6355844E0,2.1565785E0,-3.0930357E0,5.700664E0,1.4233916E0,4.5593813E-1,-2.9272213E0,6.37797E-1,4.6644473E0,-2.663393E-1,-2.575296E0,3.7417705E0,-1.0341334E0,2.3272505E0,-4.284319E-1,1.0987707E0,-2.4069521E0,-2.4175944E0,8.9748234E-1,-9.9085927E-1,3.2002194E0,2.8908446E-1,4.626341E0,2.5456657E0,-1.7685024E-1,9.1664165E-1,-9.545248E-1,-3.2444694E0,-1.1769482E0,-1.7126954E0,-3.8585147E-1,-1.0406249E0,2.570314E0,1.0401357E0,-2.043639E-1,-2.1823525E0,2.0770533E0],"categories":[],"categories_nodes":[],"categories_segments":[],"categories_sizes":[],"default_left":[0,0,0,0,0,0,0,0,0,0,0,0,0,0,0,0,0,0,0,0,0,0,0,0,0,0,0,0,0,0,0,0,0,0,0,0,0,0,0,0,0,0,0,0,0,0,0,0,0,0,0,0,0,0,0,0,0,0,0,0,0,0,0,0,0,0,0,0,0,0,0,0,0,0,0,0,0,0,0,0,0,0,0,0,0,0,0,0,0,0,0,0,0,0,0],"id":9,"left_children":[1,3,5,7,9,11,13,15,17,-1,19,21,23,25,27,29,31,33,35,37,39,41,43,45,47,-1,49,51,53,55,57,59,61,63,65,67,69,71,73,-1,-1,75,77,79,81,83,85,-1,87,-1,-1,89,-1,91,93,-1,-1,-1,-1,-1,-1,-1,-1,-1,-1,-1,-1,-1,-1,-1,-1,-1,-1,-1,-1,-1,-1,-1,-1,-1,-1,-1,-1,-1,-1,-1,-1,-1,-1,-1,-1,-1,-1,-1,-1],"loss_changes":[1.2349484E3,9.897838E2,5.630278E2,6.854367E2,3.1900557E3,1.0995508E3,8.186216E2,1.3253638E3,6.8195416E2,0E0,1.3649258E3,8.085137E2,5.986766E2,4.9158533E2,7.670631E2,1.1534463E3,9.363119E2,9.2360913E2,8.034276E2,3.5116254E2,2.6338928E2,6.061664E2,8.6120233E2,2.2908862E2,3.6331418E2,0E0,3.451289E2,7.985786E2,9.028171E2,4.4395966E1,5.540846E2,3.537456E2,2.7373535E1,1.1150327E3,2.3951155E3,8.196459E2,2.7688657E3,2.3981526E2,1.792955E2,0E0,0E0,1.6988525E2,2.0195282E2,1.2446528E3,5.6955804E2,4.6290695E1,1.5962866E2,0E0,2.9163736E2,0E0,0E0,5.5552124E2,0E0,9.0655804E2,3.3240417E2,0E0,0E0,0E0,0E0,0E0,0E0,0E0,0E0,0E0,0E0,0E0,0E0,0E0,0E0,0E0,0E0,0E0,0E0,0E0,0E0,0E0,0E0,0E0,0E0,0E0,0E0,0E0,0E0,0E0,0E0,0E0,0E0,0E0,0E0,0E0,0E0,0E0,0E0,0E0,0E0],"parents":[2147483647,0,0,1,1,2,2,3,3,4,4,5,5,6,6,7,7,8,8,10,10,11,11,12,12,13,13,14,14,15,15,16,16,17,17,18,18,19,19,20,20,21,21,22,22,23,23,24,24,26,26,27,27,28,28,29,29,30,30,31,31,32,32,33,33,34,34,35,35,36,36,37,37,38,38,41,41,42,42,43,43,44,44,45,45,46,46,48,48,51,51,53,53,54,54],"right_children":[2,4,6,8,10,12,14,16,18,-1,20,22,24,26,28,30,32,34,36,38,40,42,44,46,48,-1,50,52,54,56,58,60,62,64,66,68,70,72,74,-1,-1,76,78,80,82,84,86,-1,88,-1,-1,90,-1,92,94,-1,-1,-1,-1,-1,-1,-1,-1,-1,-1,-1,-1,-1,-1,-1,-1,-1,-1,-1,-1,-1,-1,-1,-1,-1,-1,-1,-1,-1,-1,-1,-1,-1,-1,-1,-1,-1,-1,-1,-1],"split_conditions":[1.4917212E1,1.481259E1,1.4194335E1,2.5842283E1,4.000864E1,8E0,3.644416E0,1.1000001E0,2.5320306E2,1.1447187E1,2.9E0,9.49782E0,2.1398056E1,1.7231833E1,1.5504749E1,9.793059E0,1.4194335E1,1.8269335E1,1.6156834E1,3E-1,1.4408916E1,5E-1,2.5264202E1,3.4859998E0,2.1794127E1,4.142412E0,1E-1,3.5790662E2,3.4404022E1,5.205E0,1.44E1,2.0630832E0,7E0,7.2E0,3E-1,1.2902667E1,1.8208916E1,1.0075583E1,2.3630836E0,6.3855104E0,4.4806913E-1,1.2611E1,4.2487497E0,7.6E0,-2.314E0,8.600001E0,1.100475E1,2.8061738E0,4.9339166E0,-3.40432E0,1.6955075E0,4.4140755E1,4.004281E0,1.5973499E1,1.6400002E1,5.9592134E-1,2.7367709E0,-2.9406366E0,1.6355844E0,2.1565785E0,-3.0930357E0,5.700664E0,1.4233916E0,4.5593813E-1,-2.9272213E0,6.37797E-1,4.6644473E0,-2.663393E-1,-2.575296E0,3.7417705E0,-1.0341334E0,2.3272505E0,-4.284319E-1,1.0987707E0,-2.4069521E0,-2.4175944E0,8.9748234E-1,-9.9085927E-1,3.2002194E0,2.8908446E-1,4.626341E0,2.5456657E0,-1.7685024E-1,9.1664165E-1,-9.545248E-1,-3.2444694E0,-1.1769482E0,-1.7126954E0,-3.8585147E-1,-1.0406249E0,2.570314E0,1.0401357E0,-2.043639E-1,-2.1823525E0,2.0770533E0],"split_indices":[2,2,0,3,3,1,3,1,3,0,1,3,2,0,0,2,0,0,0,1,0,1,2,0,2,0,1,3,2,0,2,0,1,1,1,0,0,0,0,0,0,0,0,1,0,1,0,0,0,0,0,2,0,0,1,0,0,0,0,0,0,0,0,0,0,0,0,0,0,0,0,0,0,0,0,0,0,0,0,0,0,0,0,0,0,0,0,0,0,0,0,0,0,0,0],"split_type":[0,0,0,0,0,0,0,0,0,0,0,0,0,0,0,0,0,0,0,0,0,0,0,0,0,0,0,0,0,0,0,0,0,0,0,0,0,0,0,0,0,0,0,0,0,0,0,0,0,0,0,0,0,0,0,0,0,0,0,0,0,0,0,0,0,0,0,0,0,0,0,0,0,0,0,0,0,0,0,0,0,0,0,0,0,0,0,0,0,0,0,0,0,0,0],"sum_hessian":[3.167E3,6.42E2,2.525E3,6.19E2,2.3E1,1.694E3,8.31E2,3.8E1,5.81E2,2E0,2.1E1,1.523E3,1.71E2,8E0,8.23E2,3.1E1,7E0,4.45E2,1.36E2,1.7E1,4E0,2.3E1,1.5E3,2.1E1,1.5E2,5E0,3E0,1.68E2,6.55E2,5E0,2.6E1,3E0,4E0,3.66E2,7.9E1,9.2E1,4.4E1,1E1,7E0,3E0,1E0,2E1,3E0,9E2,6E2,3E0,1.8E1,2E0,1.48E2,1E0,2E0,1.66E2,2E0,6.31E2,2.4E1,2E0,3E0,2.4E1,2E0,1E0,2E0,3E0,1E0,3.58E2,8E0,6.3E1,1.6E1,7.6E1,1.6E1,1.7E1,2.7E1,4E0,6E0,1E0,6E0,1.9E1,1E0,1E0,2E0,8.95E2,5E0,6E0,5.94E2,2E0,1E0,1.1E1,7E0,1.6E1,1.32E2,1.63E2,3E0,5.7E1,5.74E2,2.3E1,1E0],"tree_param":{"num_deleted":"0","num_feature":"4","num_nodes":"95","size_leaf_vector":"1"}},{"base_weights":[5.8705546E-2,3.1347685E0,-1.6897267E-2,1.5281745E0,1.4925171E1,-5.7781152E-2,4.6278353E0,4.8128514E0,-3.9629517E0,2.3081232E1,-1.0402145E0,-6.250897E0,-3.1408552E-2,8.752319E0,7.447596E-1,2.9895852E0,1.136857E1,-2.9967163E0,-7.2973657E-1,-1.0197041E0,8.717126E0,-2.3447027E0,3.8234978E0,-1.0287319E1,5.4028835E0,8.11817E-1,-2.3654178E-1,1.6299007E1,3.5872355E0,-9.5072407E-1,2.353081E0,5.970546E0,-1.9083233E0,3.6438842E0,7.7203333E-1,3.8485396E0,-2.2818933E0,3.0721152E-1,1.4133625E0,-1.35244465E1,-4.3453035E0,6.3554764E-2,7.062612E0,3.9623952E-1,4.4637656E0,-7.6451015E0,-2.001138E-1,-1.1478596E-1,6.169521E0,-2.6328187E0,6.2296553E0,2.8557816E0,-2.2836869E0,7.0438445E-1,4.5718446E0,2.5208623E0,-1.2981287E0,-2.6421485E0,1.2100658E-1,-1.1104214E0,-4.424632E0,1.4553647E0,-2.357171E0,3.0270505E0,1.5112495E-1,1.8331537E-1,-1.6511015E0,2.1213248E0,-1.438334E0,3.2345536E0,-3.0901341E0,-1.6195128E-2,-4.2714486E-1,3.0791166E0,5.269414E-1,1.5482119E0,-3.9466527E-1],"categories":[],"categories_nodes":[],"categories_segments":[],"categories_sizes":[],"default_left":[0,0,0,0,0,0,0,0,0,0,0,0,0,0,0,0,0,0,0,0,0,0,0,0,0,0,0,0,0,0,0,0,0,0,0,0,0,0,0,0,0,0,0,0,0,0,0,0,0,0,0,0,0,0,0,0,0,0,0,0,0,0,0,0,0,0,0,0,0,0,0,0,0,0,0,0,0],"id":10,"left_children":[1,3,5,7,9,11,13,15,17,19,21,23,25,27,29,31,33,-1,35,-1,-1,-1,37,39,41,43,45,47,49,51,-1,53,55,-1,-1,-1,57,-1,-1,59,61,-1,63,65,67,69,71,-1,-1,-1,73,75,-1,-1,-1,-1,-1,-1,-1,-1,-1,-1,-1,-1,-1,-1,-1,-1,-1,-1,-1,-1,-1,-1,-1,-1,-1],"loss_changes":[7.3679987E2,1.4168135E3,5.8761176E2,1.2455602E3,1.1959415E3,5.0073236E2,4.259051E2,4.7998395E2,4.992864E2,1.0482173E3,1.6169879E2,6.670958E2,5.2862634E2,4.4826227E2,1.8799669E2,5.224103E2,3.0302734E1,0E0,4.0807336E2,0E0,0E0,0E0,2.6308708E0,1.3358289E2,3.296663E1,9.057965E2,6.618323E2,3.6369287E2,3.4869305E2,3.5138373E2,0E0,7.029263E2,3.8552618E2,0E0,0E0,0E0,3.0142584E2,0E0,0E0,1.756836E1,1.9960497E2,0E0,5.4489044E1,6.852079E2,1.5063864E3,6.982165E2,4.374949E2,0E0,0E0,0E0,1.2633304E2,9.332064E1,0E0,0E0,0E0,0E0,0E0,0E0,0E0,0E0,0E0,0E0,0E0,0E0,0E0,0E0,0E0,0E0,0E0,0E0,0E0,0E0,0E0,0E0,0E0,0E0,0E0],"parents":[2147483647,0,0,1,1,2,2,3,3,4,4,5,5,6,6,7,7,8,8,9,9,10,10,11,11,12,12,13,13,14,14,15,15,16,16,18,18,22,22,23,23,24,24,25,25,26,26,27,27,28,28,29,29,31,31,32,32,36,36,39,39,40,40,42,42,43,43,44,44,45,45,46,46,50,50,51,51],"right_children":[2,4,6,8,10,12,14,16,18,20,22,24,26,28,30,32,34,-1,36,-1,-1,-1,38,40,42,44,46,48,50,52,-1,54,56,-1,-1,-1,58,-1,-1,60,62,-1,64,66,68,70,72,-1,-1,-1,74,76,-1,-1,-1,-1,-1,-1,-1,-1,-1,-1,-1,-1,-1,-1,-1,-1,-1,-1,-1,-1,-1,-1,-1,-1,-1],"split_conditions":[-3.0150005E-1,1.1000001E0,2.4361252E1,1.6981165E1,3.7999997E0,6.724998E-2,2.5031836E1,-7.2649974E-1,2.0929594E1,-3.2806666E0,3.9999995E0,1.6279802E1,1.4917212E1,1.4168641E1,1.5070392E2,-1.7035834E0,1.6775319E2,-2.9967163E0,2.0969807E1,-1.0197041E0,8.717126E0,-2.3447027E0,-3.2806666E0,1.02359474E2,1.9228851E1,1.8000001E0,1.5021105E1,1.549605E1,1.4689588E1,1.11595375E2,2.353081E0,1.6581003E2,6.190053E1,3.6438842E0,7.7203333E-1,3.8485396E0,2.2530937E1,3.0721152E-1,1.4133625E0,4.2691265E1,1.0950251E2,6.3554764E-2,1E-1,1.2000002E0,7.6E0,2.7559175E1,3.0741605E2,-1.1478596E-1,6.169521E0,-2.6328187E0,1.7377226E1,1E-1,-2.2836869E0,7.0438445E-1,4.5718446E0,2.5208623E0,-1.2981287E0,-2.6421485E0,1.2100658E-1,-1.1104214E0,-4.424632E0,1.4553647E0,-2.357171E0,3.0270505E0,1.5112495E-1,1.8331537E-1,-1.6511015E0,2.1213248E0,-1.438334E0,3.2345536E0,-3.0901341E0,-1.6195128E-2,-4.2714486E-1,3.0791166E0,5.269414E-1,1.5482119E0,-3.9466527E-1],"split_indices":[0,1,0,2,1,0,0,0,2,0,1,2,2,2,3,0,3,0,2,0,0,0,0,3,2,1,2,3,2,3,0,3,3,0,0,0,2,0,0,3,3,0,1,1,1,3,3,0,0,0,2,1,0,0,0,0,0,0,0,0,0,0,0,0,0,0,0,0,0,0,0,0,0,0,0,0,0],"split_type":[0,0,0,0,0,0,0,0,0,0,0,0,0,0,0,0,0,0,0,0,0,0,0,0,0,0,0,0,0,0,0,0,0,0,0,0,0,0,0,0,0,0,0,0,0,0,0,0,0,0,0,0,0,0,0,0,0,0,0,0,0,0,0,0,0,0,0,0,0,0,0,0,0,0,0,0,0],"sum_hessian":[3.167E3,7.5E1,3.092E3,6.7E1,8E0,3.066E3,2.6E1,4.2E1,2.5E1,5E0,3E0,1.2E1,3.054E3,1.2E1,1.4E1,3.4E1,8E0,8E0,1.7E1,1E0,4E0,1E0,2E0,9E0,3E0,5.97E2,2.457E3,4E0,8E0,1.2E1,2E0,2.1E1,1.3E1,7E0,1E0,1E0,1.6E1,1E0,1E0,5E0,4E0,1E0,2E0,5.37E2,6E1,1.1E1,2.446E3,1E0,3E0,1E0,7E0,8E0,4E0,1.6E1,5E0,2E0,1.1E1,4E0,1.2E1,1E0,4E0,1E0,3E0,1E0,1E0,5.19E2,1.8E1,4.7E1,1.3E1,1E0,1E1,2.186E3,2.6E2,3E0,4E0,5E0,3E0],"tree_param":{"num_deleted":"0","num_feature":"4","num_nodes":"77","size_leaf_vector":"1"}},{"base_weights":[4.749795E-2,3.160402E0,-2.4195574E-3,6.795242E0,-4.988335E0,-3.1128948E0,4.9270455E-2,4.8912E0,7.642387E0,1.7123566E0,-8.189773E0,8.370578E0,-4.5430675E0,4.4590444E-3,3.623453E0,8.375166E0,-3.9594378E0,-3.9606445E0,1.2470145E1,-9.9745E0,-1.0566839E-1,-4.277331E-1,3.8630002E0,-7.65352E0,1.2132059E0,1.6018675E-1,-1.1854731E0,6.289891E-1,1.1945052E1,9.517309E0,-2.7922719E0,-6.3245416E0,1.1693525E0,4.6166615E0,5.57095E-1,-3.3940132E0,-1.0576859E0,-2.81555E-1,2.3400421E-1,-2.978474E-1,1.05367474E-1,-5.2670074E0,-5.559805E0,7.693328E0,-7.038597E0,4.9429333E-1,-6.23622E-1,-1.9320859E0,1.7861277E0,2.8515832E0,-3.182934E0,1.4581456E1,2.798874E-1,9.278581E-1,3.1106741E0,-1.2652588E-1,-1.1299965E0,-2.8586192E0,3.3718646E-1,-9.3286324E-1,2.1009064E0,-2.8556454E0,1.4600201E-1,2.2216041E-1,5.381215E0,-2.2448692E0,-5.8927464E-1,7.909932E-2,9.404557E-1,-2.5854865E-1,9.663685E-1,-3.3776772E-1,-1.5453453E0,-4.6542063E-1,3.3006217E0,7.6937833E0,2.4997123E-1,5.059235E0,1.5466954E0],"categories":[],"categories_nodes":[],"categories_segments":[],"categories_sizes":[],"default_left":[0,0,0,0,0,0,0,0,0,0,0,0,0,0,0,0,0,0,0,0,0,0,0,0,0,0,0,0,0,0,0,0,0,0,0,0,0,0,0,0,0,0,0,0,0,0,0,0,0,0,0,0,0,0,0,0,0,0,0,0,0,0,0,0,0,0,0,0,0,0,0,0,0,0,0,0,0,0,0],"id":11,"left_children":[1,3,5,7,9,11,13,15,-1,17,19,21,23,25,27,29,31,-1,33,35,37,39,-1,41,43,45,47,49,51,53,55,57,59,-1,-1,-1,-1,-1,-1,-1,-1,61,-1,63,65,67,69,71,73,75,-1,77,-1,-1,-1,-1,-1,-1,-1,-1,-1,-1,-1,-1,-1,-1,-1,-1,-1,-1,-1,-1,-1,-1,-1,-1,-1,-1,-1],"loss_changes":[4.9227814E2,1.5148646E3,5.0162775E2,1.12022E3,3.5725336E2,8.756188E2,4.9152765E2,1.0507263E3,0E0,1.1273152E3,1.5765314E2,2.4338364E2,8.328976E2,5.620359E2,9.393983E2,3.3269055E2,1.2869681E2,0E0,9.533081E1,3.7821655E1,2.9449735E0,1.6692524E0,0E0,6.812859E2,9.63186E2,7.026588E2,7.821919E2,7.5465204E2,2.7671936E2,8.829419E1,5.340782E0,1.7777463E2,1.2162286E2,0E0,0E0,0E0,0E0,0E0,0E0,0E0,0E0,6.406851E2,0E0,6.989647E2,3.3379822E0,1.1446824E3,7.3730347E2,7.2344836E2,2.2009216E3,1.1288033E3,0E0,8.518176E1,0E0,0E0,0E0,0E0,0E0,0E0,0E0,0E0,0E0,0E0,0E0,0E0,0E0,0E0,0E0,0E0,0E0,0E0,0E0,0E0,0E0,0E0,0E0,0E0,0E0,0E0,0E0],"parents":[2147483647,0,0,1,1,2,2,3,3,4,4,5,5,6,6,7,7,9,9,10,10,11,11,12,12,13,13,14,14,15,15,16,16,18,18,19,19,20,20,21,21,23,23,24,24,25,25,26,26,27,27,28,28,29,29,30,30,31,31,32,32,41,41,43,43,44,44,45,45,46,46,47,47,48,48,49,49,51,51],"right_children":[2,4,6,8,10,12,14,16,-1,18,20,22,24,26,28,30,32,-1,34,36,38,40,-1,42,44,46,48,50,52,54,56,58,60,-1,-1,-1,-1,-1,-1,-1,-1,62,-1,64,66,68,70,72,74,76,-1,78,-1,-1,-1,-1,-1,-1,-1,-1,-1,-1,-1,-1,-1,-1,-1,-1,-1,-1,-1,-1,-1,-1,-1,-1,-1,-1,-1],"split_conditions":[9.178235E0,1.6775319E2,1.0137692E1,1.8700584E1,6.5943336E0,3.1389257E1,3.519155E2,1.0202915E1,7.642387E0,3.4859998E0,3.1946793E2,4.0193334E0,1.9530618E2,2.9571225E2,1.6779749E1,2E-1,7.560954E1,-3.9606445E0,1E-1,8.4963045E0,1.2050832E1,-2.314E0,3.8630002E0,1.5590953E2,2.5171454E2,2.5999997E0,2.5999997E0,1.5973499E1,3.1E0,2.0556154E1,1.6047502E0,1.7881834E1,8.4963045E0,4.6166615E0,5.57095E-1,-3.3940132E0,-1.0576859E0,-2.81555E-1,2.3400421E-1,-2.978474E-1,1.05367474E-1,9.5547495E0,-5.559805E0,2.2835461E2,4E-1,1.8000001E0,1.8775583E1,1.1000001E0,3.2666125E2,1.255879E1,-3.182934E0,3.5790662E2,2.798874E-1,9.278581E-1,3.1106741E0,-1.2652588E-1,-1.1299965E0,-2.8586192E0,3.3718646E-1,-9.3286324E-1,2.1009064E0,-2.8556454E0,1.4600201E-1,2.2216041E-1,5.381215E0,-2.2448692E0,-5.8927464E-1,7.909932E-2,9.404557E-1,-2.5854865E-1,9.663685E-1,-3.3776772E-1,-1.5453453E0,-4.6542063E-1,3.3006217E0,7.6937833E0,2.4997123E-1,5.059235E0,1.5466954E0],"split_indices":[2,3,2,0,0,3,3,0,0,0,3,0,3,3,0,1,3,0,1,2,0,0,0,3,3,1,1,0,1,3,0,0,2,0,0,0,0,0,0,0,0,0,0,3,1,1,0,1,3,2,0,3,0,0,0,0,0,0,0,0,0,0,0,0,0,0,0,0,0,0,0,0,0,0,0,0,0,0,0],"split_type":[0,0,0,0,0,0,0,0,0,0,0,0,0,0,0,0,0,0,0,0,0,0,0,0,0,0,0,0,0,0,0,0,0,0,0,0,0,0,0,0,0,0,0,0,0,0,0,0,0,0,0,0,0,0,0,0,0,0,0,0,0,0,0,0,0,0,0,0,0,0,0,0,0,0,0,0,0,0,0],"sum_hessian":[3.167E3,4.9E1,3.118E3,3.4E1,1.5E1,5E1,3.068E3,3.2E1,2E0,5E0,1E1,5E0,4.5E1,3.031E3,3.7E1,2.3E1,9E0,2E0,3E0,8E0,2E0,2E0,3E0,2.9E1,1.6E1,2.681E3,3.5E2,2.8E1,9E0,2.1E1,2E0,6E0,3E0,2E0,1E0,6E0,2E0,1E0,1E0,1E0,1E0,2.5E1,4E0,9E0,7E0,1.88E3,8.01E2,2.8E2,7E1,2.4E1,4E0,7E0,2E0,3E0,1.8E1,1E0,1E0,4E0,2E0,2E0,1E0,1.4E1,1.1E1,6E0,3E0,6E0,1E0,1.73E3,1.5E2,7.55E2,4.6E1,2.25E2,5.5E1,5.2E1,1.8E1,1E0,2.3E1,5E0,2E0],"tree_param":{"num_deleted":"0","num_feature":"4","num_nodes":"79","size_leaf_vector":"1"}},{"base_weights":[3.901961E-2,7.3687494E-1,-1.610311E-1,5.759531E-1,9.270942E0,-3.800402E0,-2.6171807E-2,-2.7694988E0,7.957054E-1,1.9416111E1,-2.1986477E0,-8.0473393E-1,-7.7208934E0,1.2988665E0,-2.153594E-1,-8.432897E-1,-9.04166E0,1.3265953E0,-1.0533144E0,5.4698184E-2,2.2591354E1,-7.478242E0,2.2000678E0,-2.2161927E0,1.0150572E1,-5.1980287E-1,-9.93779E0,-2.8993097E-1,3.1565127E0,1.3301837E0,-3.4572035E-1,2.6757367E0,-3.4403949E0,-1.0650736E0,-1.0902673E1,1.0024413E0,7.8084273E0,-4.821062E0,4.261647E-3,6.194298E-1,7.8851156E0,5.1060563E-1,-3.0596435E0,5.4810065E-1,-5.0043163E0,6.335648E-1,8.660341E0,-4.7140136E0,3.2514083E0,-1.1339741E1,-2.6736896E0,-6.7975485E-1,9.893812E0,9.785653E0,2.44183E0,8.950977E0,4.9166083E-1,-6.8548164E0,-2.4221843E-1,2.852791E-1,2.7773957E0,2.1006386E0,-1.4969047E0,2.8099194E-1,-7.602751E-1,-2.0872555E0,-4.547628E0,8.076987E-1,9.206094E-2,5.099247E0,9.211186E-3,1.841145E0,-2.123299E0,1.7930022E0,-7.416469E-1,-7.798878E-1,2.150552E0,-3.8338149E0,-6.40383E-1,-7.011389E-1,1.8774514E0,-2.2866454E0,2.346443E0,-3.5591178E0,1.06785685E-1,-1.2087849E0,6.1564183E-1,-7.357013E-2,-2.3249056E0,9.496591E0,-2.670227E0,-1.0044372E0,4.7984705E0,-3.1325445E0,1.1329751E0,3.5447164E0,-2.2204454E0,1.058171E0,-1.5738817E-1,-5.0967336E0,-1.6572553E0,2.0180097E0,-1.0290994E-1],"categories":[],"categories_nodes":[],"categories_segments":[],"categories_sizes":[],"default_left":[0,0,0,0,0,0,0,0,0,0,0,0,0,0,0,0,0,0,0,0,0,0,0,0,0,0,0,0,0,0,0,0,0,0,0,0,0,0,0,0,0,0,0,0,0,0,0,0,0,0,0,0,0,0,0,0,0,0,0,0,0,0,0,0,0,0,0,0,0,0,0,0,0,0,0,0,0,0,0,0,0,0,0,0,0,0,0,0,0,0,0,0,0,0,0,0,0,0,0,0,0,0,0],"id":12,"left_children":[1,3,5,7,9,11,13,15,17,19,21,23,25,27,29,31,33,35,37,-1,39,41,-1,43,45,47,49,51,53,55,57,59,61,63,65,67,69,71,73,-1,-1,-1,-1,75,77,79,-1,81,-1,83,85,87,89,91,93,95,97,99,101,-1,-1,-1,-1,-1,-1,-1,-1,-1,-1,-1,-1,-1,-1,-1,-1,-1,-1,-1,-1,-1,-1,-1,-1,-1,-1,-1,-1,-1,-1,-1,-1,-1,-1,-1,-1,-1,-1,-1,-1,-1,-1,-1,-1],"loss_changes":[4.423919E2,9.6422266E2,1.2087482E3,5.124122E2,1.5553813E3,1.027302E3,5.958973E2,5.1187955E2,6.414175E2,4.2338428E2,4.071254E2,8.111067E2,6.01469E2,8.7748816E2,4.195351E2,3.1994116E2,1.3683307E2,1.0574363E3,5.817838E2,0E0,4.0048022E2,1.4223624E2,0E0,3.5727368E2,1.0505027E3,5.2746185E2,2.650144E2,6.458739E2,6.251743E2,1.0308131E3,1.2911775E3,1.6149289E2,3.5850778E2,1.1196291E1,2.8860107E1,5.6808563E2,1.7147578E3,8.3474255E2,1.7156471E3,0E0,0E0,0E0,0E0,5.1877686E2,4.8590063E2,9.81711E1,0E0,3.5125592E2,0E0,1.5130347E2,4.6706474E1,4.773368E2,2.7357427E3,1.1137142E3,2.1889956E3,8.369835E2,4.5534833E2,3.106996E2,1.3301631E3,0E0,0E0,0E0,0E0,0E0,0E0,0E0,0E0,0E0,0E0,0E0,0E0,0E0,0E0,0E0,0E0,0E0,0E0,0E0,0E0,0E0,0E0,0E0,0E0,0E0,0E0,0E0,0E0,0E0,0E0,0E0,0E0,0E0,0E0,0E0,0E0,0E0,0E0,0E0,0E0,0E0,0E0,0E0,0E0],"parents":[2147483647,0,0,1,1,2,2,3,3,4,4,5,5,6,6,7,7,8,8,9,9,10,10,11,11,12,12,13,13,14,14,15,15,16,16,17,17,18,18,20,20,21,21,23,23,24,24,25,25,26,26,27,27,28,28,29,29,30,30,31,31,32,32,33,33,34,34,35,35,36,36,37,37,38,38,43,43,44,44,45,45,47,47,49,49,50,50,51,51,52,52,53,53,54,54,55,55,56,56,57,57,58,58],"right_children":[2,4,6,8,10,12,14,16,18,20,22,24,26,28,30,32,34,36,38,-1,40,42,-1,44,46,48,50,52,54,56,58,60,62,64,66,68,70,72,74,-1,-1,-1,-1,76,78,80,-1,82,-1,84,86,88,90,92,94,96,98,100,102,-1,-1,-1,-1,-1,-1,-1,-1,-1,-1,-1,-1,-1,-1,-1,-1,-1,-1,-1,-1,-1,-1,-1,-1,-1,-1,-1,-1,-1,-1,-1,-1,-1,-1,-1,-1,-1,-1,-1,-1,-1,-1,-1,-1],"split_conditions":[6.0693326E0,6.0318336E0,6.534167E0,3.818665E1,4E-1,6.3443336E0,8.069334E0,3.1389257E1,2.600486E1,1.6919759E2,2.0000002E0,3.252018E2,2.1193066E2,7.4172497E0,1.1966954E1,3.581833E0,1.00475E0,2.51614E1,1.8636656E2,5.4698184E-2,1.539184E1,1.0002868E2,2.2000678E0,8.000001E-1,6.271666E0,2.0627353E2,3.1072817E1,3.3828726E2,1.1879999E1,8.648501E0,1.255879E1,3.3070834E0,2.422345E0,-2.314E0,3.3070834E0,1.0002868E2,5E-1,-2.314E0,2.1193066E2,6.194298E-1,7.8851156E0,5.1060563E-1,-3.0596435E0,1.9576189E1,2.4472057E1,7E-1,8.660341E0,3.8000002E0,3.2514083E0,6E0,6.471418E0,3.1832526E2,2.012461E1,7.648749E0,1.3684735E1,3.3570508E2,7.38251E1,9.494335E0,1.2904882E1,2.852791E-1,2.7773957E0,2.1006386E0,-1.4969047E0,2.8099194E-1,-7.602751E-1,-2.0872555E0,-4.547628E0,8.076987E-1,9.206094E-2,5.099247E0,9.211186E-3,1.841145E0,-2.123299E0,1.7930022E0,-7.416469E-1,-7.798878E-1,2.150552E0,-3.8338149E0,-6.40383E-1,-7.011389E-1,1.8774514E0,-2.2866454E0,2.346443E0,-3.5591178E0,1.06785685E-1,-1.2087849E0,6.1564183E-1,-7.357013E-2,-2.3249056E0,9.496591E0,-2.670227E0,-1.0044372E0,4.7984705E0,-3.1325445E0,1.1329751E0,3.5447164E0,-2.2204454E0,1.058171E0,-1.5738817E-1,-5.0967336E0,-1.6572553E0,2.0180097E0,-1.0290994E-1],"split_indices":[0,0,0,3,1,0,0,3,2,3,1,3,3,0,2,0,0,2,3,0,2,3,0,1,0,3,2,3,2,0,2,0,3,0,0,3,1,0,3,0,0,0,0,2,2,1,0,1,0,1,0,3,2,0,2,3,3,0,2,0,0,0,0,0,0,0,0,0,0,0,0,0,0,0,0,0,0,0,0,0,0,0,0,0,0,0,0,0,0,0,0,0,0,0,0,0,0,0,0,0,0,0,0],"split_type":[0,0,0,0,0,0,0,0,0,0,0,0,0,0,0,0,0,0,0,0,0,0,0,0,0,0,0,0,0,0,0,0,0,0,0,0,0,0,0,0,0,0,0,0,0,0,0,0,0,0,0,0,0,0,0,0,0,0,0,0,0,0,0,0,0,0,0,0,0,0,0,0,0,0,0,0,0,0,0,0,0,0,0,0,0,0,0,0,0,0,0,0,0,0,0,0,0,0,0,0,0,0,0],"sum_hessian":[3.167E3,7.05E2,2.462E3,6.93E2,1.2E1,8.7E1,2.375E3,4.2E1,6.51E2,6E0,6E0,5E1,3.7E1,2.96E2,2.079E3,3.3E1,9E0,5.06E2,1.45E2,1E0,5E0,4E0,2E0,4.5E1,5E0,9E0,2.8E1,1.6E2,1.36E2,1.61E2,1.918E3,1.4E1,1.9E1,2E0,7E0,4.83E2,2.3E1,3.1E1,1.14E2,1E0,4E0,1E0,3E0,2.3E1,2.2E1,4E0,1E0,7E0,2E0,2.3E1,5E0,1.55E2,5E0,1.2E1,1.24E2,1.5E1,1.46E2,2.9E1,1.889E3,1.2E1,2E0,2E0,1.7E1,1E0,1E0,5E0,2E0,1.4E2,3.43E2,1E1,1.3E1,5E0,2.6E1,3.3E1,8.1E1,1.6E1,7E0,5E0,1.7E1,3E0,1E0,6E0,1E0,2.2E1,1E0,4E0,1E0,1.47E2,8E0,2E0,3E0,4E0,8E0,1.1E1,1.13E2,1.3E1,2E0,3.6E1,1.1E2,2E0,2.7E1,2.6E1,1.863E3],"tree_param":{"num_deleted":"0","num_feature":"4","num_nodes":"103","size_leaf_vector":"1"}},{"base_weights":[3.3988368E-2,9.701613E-2,-1.962458E0,7.481067E-2,6.88885E0,-2.465046E0,3.9369624E0,3.8637903E-2,2.8786004E0,1.5259378E0,4.3655205E0,-8.287966E0,-1.5493486E0,3.0282648E0,-1.7762321E0,9.2626065E-1,-8.731862E-2,6.4278984E-1,9.298172E0,5.8669386E0,-1.8653128E0,-1.0561426E1,-8.9785105E-1,5.0103683E0,-1.9660051E0,-4.457535E0,4.491444E-1,3.6428753E-1,4.758821E0,-3.9764447E0,-3.072692E-2,6.4267936E0,-1.7526113E0,1.17497E1,8.0503696E-1,7.426155E-1,2.1908538E0,-2.6989175E-2,-1.2044497E1,1.267816E0,2.1248395E0,-6.9336486E0,-7.122237E-1,-1.6176362E0,-3.8825455E-1,7.177972E-2,6.2057157E0,9.705984E-2,1.919091E0,-1.848706E-1,-2.4273129E0,-2.0097842E-2,1.033566E0,-8.0901843E-1,5.551614E0,-1.1783003E0,2.7051177E0,4.180111E0,1.257938E0,-1.557105E0,-4.124426E0,2.3740197E-2,5.46777E-1,-3.579222E0,-1.2095737E0,1.2588261E0,-6.386929E-1],"categories":[],"categories_nodes":[],"categories_segments":[],"categories_sizes":[],"default_left":[0,0,0,0,0,0,0,0,0,0,0,0,0,0,0,0,0,0,0,0,0,0,0,0,0,0,0,0,0,0,0,0,0,0,0,0,0,0,0,0,0,0,0,0,0,0,0,0,0,0,0,0,0,0,0,0,0,0,0,0,0,0,0,0,0,0,0],"id":13,"left_children":[1,3,5,7,9,11,13,15,17,19,-1,21,23,-1,25,27,29,31,33,35,-1,37,-1,39,41,43,-1,45,47,49,51,53,55,57,-1,-1,-1,-1,59,61,-1,63,65,-1,-1,-1,-1,-1,-1,-1,-1,-1,-1,-1,-1,-1,-1,-1,-1,-1,-1,-1,-1,-1,-1,-1,-1],"loss_changes":[3.988248E2,4.62791E2,2.9730756E2,3.1054077E2,3.8874866E2,4.6704187E2,2.993503E2,3.3828152E2,5.537882E2,2.7178516E2,0E0,1.12850525E2,2.2576915E2,0E0,5.0558205E1,8.0809357E2,5.8312225E2,4.2691397E2,1.3063177E2,6.2724304E0,0E0,1.2315582E2,0E0,2.98012E1,4.6218707E2,1.8908844E0,0E0,8.3091516E2,3.4668225E2,5.2039856E2,3.296211E2,1.041697E3,5.50758E2,5.7099243E1,0E0,0E0,0E0,0E0,1.0379211E1,1.8341208E0,0E0,1.6939996E2,4.3311893E2,0E0,0E0,0E0,0E0,0E0,0E0,0E0,0E0,0E0,0E0,0E0,0E0,0E0,0E0,0E0,0E0,0E0,0E0,0E0,0E0,0E0,0E0,0E0,0E0],"parents":[2147483647,0,0,1,1,2,2,3,3,4,4,5,5,6,6,7,7,8,8,9,9,11,11,12,12,14,14,15,15,16,16,17,17,18,18,19,19,21,21,23,23,24,24,25,25,27,27,28,28,29,29,30,30,31,31,32,32,33,33,38,38,39,39,41,41,42,42],"right_children":[2,4,6,8,10,12,14,16,18,20,-1,22,24,-1,26,28,30,32,34,36,-1,38,-1,40,42,44,-1,46,48,50,52,54,56,58,-1,-1,-1,-1,60,62,-1,64,66,-1,-1,-1,-1,-1,-1,-1,-1,-1,-1,-1,-1,-1,-1,-1,-1,-1,-1,-1,-1,-1,-1,-1,-1],"split_conditions":[1.2900002E1,1.27E1,1.7748749E1,3.519155E2,1.3550834E1,2.0883102E1,1.9250586E1,4.196417E0,1.6779749E1,1.1913082E1,4.3655205E0,2.3603702E2,8.431028E1,3.0282648E0,1.539184E1,3.6526663E0,4.405E0,5.8318334E0,1.2000002E0,2.0691432E2,-1.8653128E0,7.6433005E0,-8.9785105E-1,8.422499E-1,1.9985826E2,2.2417501E1,4.491444E-1,3.7690125E1,1.5542662E1,2.3233253E1,2.4361252E1,5.0318336E0,2.4472057E1,3.5790662E2,8.0503696E-1,7.426155E-1,2.1908538E0,-2.6989175E-2,1.3400584E1,-3.2806666E0,2.1248395E0,7.334167E0,2.8373846E1,-1.6176362E0,-3.8825455E-1,7.177972E-2,6.2057157E0,9.705984E-2,1.919091E0,-1.848706E-1,-2.4273129E0,-2.0097842E-2,1.033566E0,-8.0901843E-1,5.551614E0,-1.1783003E0,2.7051177E0,4.180111E0,1.257938E0,-1.557105E0,-4.124426E0,2.3740197E-2,5.46777E-1,-3.579222E0,-1.2095737E0,1.2588261E0,-6.386929E-1],"split_indices":[1,1,0,3,0,2,0,0,0,0,0,3,3,0,2,0,0,0,1,3,0,3,0,0,3,0,0,2,2,2,0,0,2,3,0,0,0,0,0,0,0,0,2,0,0,0,0,0,0,0,0,0,0,0,0,0,0,0,0,0,0,0,0,0,0,0,0],"split_type":[0,0,0,0,0,0,0,0,0,0,0,0,0,0,0,0,0,0,0,0,0,0,0,0,0,0,0,0,0,0,0,0,0,0,0,0,0,0,0,0,0,0,0,0,0,0,0,0,0,0,0,0,0,0,0,0,0,0,0,0,0,0,0,0,0,0,0],"sum_hessian":[3.167E3,3.071E3,9.6E1,3.062E3,9E0,8.9E1,7E0,3.024E3,3.8E1,6E0,3E0,1.1E1,7.8E1,3E0,4E0,3.75E2,2.649E3,2.9E1,9E0,4E0,2E0,7E0,4E0,4E0,7.4E1,2E0,2E0,3.28E2,4.7E1,3.7E1,2.612E3,8E0,2.1E1,6E0,3E0,2E0,2E0,1E0,6E0,2E0,2E0,1.4E1,6E1,1E0,1E0,3.27E2,1E0,1.3E1,3.4E1,2.1E1,1.6E1,2.586E3,2.6E1,5E0,3E0,1.8E1,3E0,4E0,2E0,2E0,4E0,1E0,1E0,4E0,1E1,1.3E1,4.7E1],"tree_param":{"num_deleted":"0","num_feature":"4","num_nodes":"67","size_leaf_vector":"1"}},{"base_weights":[2.9485015E-2,3.304404E-1,-2.615876E-1,3.064382E-2,2.5552516E0,-7.489544E0,-1.9810013E-1,1.564912E-1,-5.6125355E0,4.6009645E0,-1.281446E-1,-8.57022E0,9.838875E-1,-1.6188169E0,-3.889742E-2,3.395246E-1,-1.5001727E0,-2.9779565E0,-1.0583898E1,8.994321E0,1.5292928E0,-8.5580015E0,1.7610495E0,-2.6959918E0,-5.359795E-1,-8.248118E0,-1.611585E-1,7.847996E0,-1.0519303E-1,2.2043312E0,1.9870184E-1,-2.6349347E0,3.8106081E0,-9.994276E0,3.117139E0,-1.1782643E1,3.0722238E-2,1.0198437E1,-3.1380124E0,3.4383023E0,-3.0725343E0,-3.344831E0,5.5242133E0,3.7120554E0,-5.249908E0,-6.8474073E0,-6.3230133E0,-3.3580613E0,1.5677563E0,-2.4615235E0,2.2773628E1,8.411394E0,-1.5309972E-1,2.430423E0,2.4748114E-1,-4.8722348E-1,9.570004E-2,-6.563872E-1,-3.501979E0,2.3829186E0,-1.1878129E0,5.0287557E-1,-3.936432E0,2.8722143E0,-2.3512027E0,-3.8233597E0,-6.13131E-1,2.6758945E0,9.2025E0,7.467236E-2,1.8655955E0,-1.8151286E0,1.9426965E0,2.5669081E0,-8.101216E-2,1.8088043E0,-7.681122E-1,-2.1242654E0,4.6664932E-1,-2.3368847E0,1.2172056E0,-6.6060877E-1,-3.7884974E0,2.5065541E0,-2.3844717E-2,1.0086122E0,-1.4889154E0,3.072003E0,8.314813E0,-1.5753399E0,3.3340037E0,-2.8554296E0,-2.7989814E-2],"categories":[],"categories_nodes":[],"categories_segments":[],"categories_sizes":[],"default_left":[0,0,0,0,0,0,0,0,0,0,0,0,0,0,0,0,0,0,0,0,0,0,0,0,0,0,0,0,0,0,0,0,0,0,0,0,0,0,0,0,0,0,0,0,0,0,0,0,0,0,0,0,0,0,0,0,0,0,0,0,0,0,0,0,0,0,0,0,0,0,0,0,0,0,0,0,0,0,0,0,0,0,0,0,0,0,0,0,0,0,0,0,0],"id":14,"left_children":[1,3,5,7,9,11,13,15,17,19,21,23,-1,25,27,29,31,33,35,37,39,41,43,-1,-1,45,47,49,51,53,55,57,59,61,63,65,-1,67,-1,69,71,-1,73,75,77,-1,79,81,83,85,87,89,91,-1,-1,-1,-1,-1,-1,-1,-1,-1,-1,-1,-1,-1,-1,-1,-1,-1,-1,-1,-1,-1,-1,-1,-1,-1,-1,-1,-1,-1,-1,-1,-1,-1,-1,-1,-1,-1,-1,-1,-1],"loss_changes":[2.7760284E2,1.0390934E3,7.377795E2,9.766648E2,1.0161393E3,1.9103894E2,3.613758E2,4.083467E2,3.6140497E2,1.4032144E3,1.3050476E3,2.0667297E1,0E0,1.5544551E3,7.527074E2,3.1784195E2,8.175879E2,9.292214E2,1.2930823E2,1.1139646E3,5.64015E2,6.089889E2,9.35942E2,0E0,0E0,6.694606E2,7.403786E2,1.9025713E3,5.835059E2,6.8474036E2,2.4786292E2,4.2289142E2,8.0206775E2,3.869513E2,9.2382E2,5.826245E1,0E0,7.999829E2,0E0,3.9749542E2,5.794169E2,0E0,5.5017662E1,7.8579517E2,1.9792233E2,0E0,4.426494E2,4.7587793E2,9.7336804E2,1.3322842E2,2.5918945E1,3.5368152E2,7.9435486E2,0E0,0E0,0E0,0E0,0E0,0E0,0E0,0E0,0E0,0E0,0E0,0E0,0E0,0E0,0E0,0E0,0E0,0E0,0E0,0E0,0E0,0E0,0E0,0E0,0E0,0E0,0E0,0E0,0E0,0E0,0E0,0E0,0E0,0E0,0E0,0E0,0E0,0E0,0E0,0E0],"parents":[2147483647,0,0,1,1,2,2,3,3,4,4,5,5,6,6,7,7,8,8,9,9,10,10,11,11,13,13,14,14,15,15,16,16,17,17,18,18,19,19,20,20,21,21,22,22,25,25,26,26,27,27,28,28,29,29,30,30,31,31,32,32,33,33,34,34,35,35,37,37,39,39,40,40,42,42,43,43,44,44,46,46,47,47,48,48,49,49,50,50,51,51,52,52],"right_children":[2,4,6,8,10,12,14,16,18,20,22,24,-1,26,28,30,32,34,36,38,40,42,44,-1,-1,46,48,50,52,54,56,58,60,62,64,66,-1,68,-1,70,72,-1,74,76,78,-1,80,82,84,86,88,90,92,-1,-1,-1,-1,-1,-1,-1,-1,-1,-1,-1,-1,-1,-1,-1,-1,-1,-1,-1,-1,-1,-1,-1,-1,-1,-1,-1,-1,-1,-1,-1,-1,-1,-1,-1,-1,-1,-1,-1,-1],"split_conditions":[2.0265795E1,1.9228851E1,2.0345573E1,1.9134262E1,6E-1,1.7881834E1,7.859227E1,1.8511143E1,1.6156834E1,1.0700583E1,8.000001E-1,1.6011E1,9.838875E-1,2.0969807E1,8.301589E1,1.3300002E0,3.2999997E0,7.334167E0,1.8700584E1,3.402912E2,2.5320306E2,1.7588083E1,6.5E0,-2.6959918E0,-5.359795E-1,4.6214166E0,4.9339166E0,1E-1,-7.2649974E-1,6.055668E1,2.5842283E1,2.5999997E0,1.7748749E1,6.47595E1,1.5E0,2.2E0,3.0722238E-2,3.3828726E2,-3.1380124E0,1.6494583E1,3.3828726E2,-3.344831E0,1.8144331E1,1.9969458E1,1.08E1,-6.8474073E0,1.5000001E0,4.7089167E0,7.5776668E0,-3.0150005E-1,1E0,2.0929594E1,8.847693E1,2.430423E0,2.4748114E-1,-4.8722348E-1,9.570004E-2,-6.563872E-1,-3.501979E0,2.3829186E0,-1.1878129E0,5.0287557E-1,-3.936432E0,2.8722143E0,-2.3512027E0,-3.8233597E0,-6.13131E-1,2.6758945E0,9.2025E0,7.467236E-2,1.8655955E0,-1.8151286E0,1.9426965E0,2.5669081E0,-8.101216E-2,1.8088043E0,-7.681122E-1,-2.1242654E0,4.6664932E-1,-2.3368847E0,1.2172056E0,-6.6060877E-1,-3.7884974E0,2.5065541E0,-2.3844717E-2,1.0086122E0,-1.4889154E0,3.072003E0,8.314813E0,-1.5753399E0,3.3340037E0,-2.8554296E0,-2.7989814E-2],"split_indices":[2,2,2,2,1,0,3,2,0,0,1,0,0,2,3,0,1,0,0,3,3,0,1,0,0,0,0,1,0,3,3,1,0,3,1,1,0,3,0,0,3,0,0,2,1,0,1,0,0,0,1,2,3,0,0,0,0,0,0,0,0,0,0,0,0,0,0,0,0,0,0,0,0,0,0,0,0,0,0,0,0,0,0,0,0,0,0,0,0,0,0,0,0],"split_type":[0,0,0,0,0,0,0,0,0,0,0,0,0,0,0,0,0,0,0,0,0,0,0,0,0,0,0,0,0,0,0,0,0,0,0,0,0,0,0,0,0,0,0,0,0,0,0,0,0,0,0,0,0,0,0,0,0,0,0,0,0,0,0,0,0,0,0,0,0,0,0,0,0,0,0,0,0,0,0,0,0,0,0,0,0,0,0,0,0,0,0,0,0],"sum_hessian":[3.167E3,1.557E3,1.61E3,1.373E3,1.84E2,1.3E1,1.597E3,1.344E3,2.9E1,1.04E2,8E1,1.2E1,1E0,1.6E2,1.437E3,1.211E3,1.33E2,2E1,9E0,4.2E1,6.2E1,1.4E1,6.6E1,1.1E1,1E0,2.8E1,1.32E2,1.1E1,1.426E3,8.4E1,1.127E3,1.1E2,2.3E1,9E0,1.1E1,8E0,1E0,4E1,2E0,4.4E1,1.8E1,1.2E1,2E0,5.2E1,1.4E1,2E0,2.6E1,4.6E1,8.6E1,7E0,4E0,7E0,1.419E3,1.5E1,6.9E1,6.9E1,1.058E3,1.06E2,4E0,1.5E1,8E0,2E0,7E0,7E0,4E0,7E0,1E0,3.9E1,1E0,2.1E1,2.3E1,1.4E1,4E0,1E0,1E0,3.8E1,1.4E1,1.1E1,3E0,2.3E1,3E0,4.2E1,4E0,1.6E1,7E1,2E0,5E0,2E0,2E0,1E0,6E0,8E0,1.411E3],"tree_param":{"num_deleted":"0","num_feature":"4","num_nodes":"93","size_leaf_vector":"1"}},{"base_weights":[2.0303965E-2,2.83318E-3,3.6924741E0,9.81952E-2,-1.0038928E0,1.8633949E0,3.1162982E0,3.579271E-2,3.6319566E0,-2.978069E0,4.7370303E-1,1.8804576E0,4.9268705E-1,2.4415164E-1,-4.0264463E-1,7.596745E0,4.9894583E-1,4.2125983E0,-3.3366935E0,3.3779802E0,-5.8192927E-1,2.61166E0,-2.5724125E0,1.6972613E-1,4.13644E0,-5.878588E-1,2.8059094E0,1.8735945E1,3.2183957E0,-5.164201E0,2.5355926E0,-1.9836242E0,5.2790565E0,-8.276492E0,-2.546554E0,-5.9250635E-1,9.867053E0,-3.0848372E0,2.8783128E-1,4.7014284E-1,4.100262E0,-1.0430989E0,-2.4310742E-1,9.79776E-1,3.0774232E-2,2.2199135E0,-6.618749E-1,-2.259546E-1,1.0410373E0,4.1598744E0,2.048755E-1,6.565642E-1,7.9387517E0,3.409681E0,4.123184E-1,8.9548224E-1,-2.5134215E0,2.0098329E0,-9.668468E-2,-1.7709202E0,7.791081E-1,-3.03609E0,7.4165076E-1,3.3237593E0,-1.0194758E0,-2.1421201E0,2.57013E-1,-2.8769398E-1,3.4446383E0,1.18597E0,-1.1186231E0,1.1172967E0,-2.797758E-1,2.3115292E-1,-6.464367E-2,1.4762884E0,2.457247E-1],"categories":[],"categories_nodes":[],"categories_segments":[],"categories_sizes":[],"default_left":[0,0,0,0,0,0,0,0,0,0,0,0,0,0,0,0,0,0,0,0,0,0,0,0,0,0,0,0,0,0,0,0,0,0,0,0,0,0,0,0,0,0,0,0,0,0,0,0,0,0,0,0,0,0,0,0,0,0,0,0,0,0,0,0,0,0,0,0,0,0,0,0,0,0,0,0,0],"id":15,"left_children":[1,3,5,7,9,11,-1,13,15,17,19,-1,21,23,25,27,29,31,33,35,37,39,41,43,45,47,49,51,53,55,57,59,-1,61,63,65,67,69,71,73,75,-1,-1,-1,-1,-1,-1,-1,-1,-1,-1,-1,-1,-1,-1,-1,-1,-1,-1,-1,-1,-1,-1,-1,-1,-1,-1,-1,-1,-1,-1,-1,-1,-1,-1,-1,-1],"loss_changes":[2.0323479E2,3.0289334E2,1.6433412E2,6.353957E2,7.977613E2,7.5401695E1,0E0,2.588995E2,6.172959E2,3.1576978E2,4.83304E2,0E0,7.816176E1,5.557838E2,5.4421765E2,1.01266895E3,3.4757535E2,5.324966E2,4.160741E2,1.0879668E3,2.5341187E2,2.0387363E1,5.1520157E0,3.9175504E2,7.614505E2,5.822529E2,1.1645804E3,7.092124E2,2.3977798E2,2.3453035E2,2.639539E2,1.0509842E2,0E0,3.222959E2,1.1749429E3,2.6232874E2,2.9076868E2,1.5069632E2,3.6834714E2,9.8978066E-1,6.740776E0,0E0,0E0,0E0,0E0,0E0,0E0,0E0,0E0,0E0,0E0,0E0,0E0,0E0,0E0,0E0,0E0,0E0,0E0,0E0,0E0,0E0,0E0,0E0,0E0,0E0,0E0,0E0,0E0,0E0,0E0,0E0,0E0,0E0,0E0,0E0,0E0],"parents":[2147483647,0,0,1,1,2,2,3,3,4,4,5,5,7,7,8,8,9,9,10,10,12,12,13,13,14,14,15,15,16,16,17,17,18,18,19,19,20,20,21,21,22,22,23,23,24,24,25,25,26,26,27,27,28,28,29,29,30,30,31,31,33,33,34,34,35,35,36,36,37,37,38,38,39,39,40,40],"right_children":[2,4,6,8,10,12,-1,14,16,18,20,-1,22,24,26,28,30,32,34,36,38,40,42,44,46,48,50,52,54,56,58,60,-1,62,64,66,68,70,72,74,76,-1,-1,-1,-1,-1,-1,-1,-1,-1,-1,-1,-1,-1,-1,-1,-1,-1,-1,-1,-1,-1,-1,-1,-1,-1,-1,-1,-1,-1,-1,-1,-1,-1,-1,-1,-1],"split_conditions":[5.1171947E1,3.4404022E1,2.7608838E2,3.3137604E1,2.2835461E2,5.7000003E0,3.1162982E0,2.4166434E2,3E0,2.8339164E0,1.9000001E0,1.8804576E0,2.3837157E2,2.387905E2,7.4000006E0,3.33559E1,6.140167E0,2.761E0,5.5425E0,9.000001E-1,3.9999995E0,2.1629375E2,1E1,9.178235E0,1.669225E1,1.9957083E1,8E0,9.000001E-1,8.676036E1,4.511E0,2.1983615E2,3.671294E1,5.2790565E0,5.5E0,6.271666E0,2.342579E2,5.6318336E0,4.7089167E0,6.2E0,9.298749E0,8.308917E0,-1.0430989E0,-2.4310742E-1,9.79776E-1,3.0774232E-2,2.2199135E0,-6.618749E-1,-2.259546E-1,1.0410373E0,4.1598744E0,2.048755E-1,6.565642E-1,7.9387517E0,3.409681E0,4.123184E-1,8.9548224E-1,-2.5134215E0,2.0098329E0,-9.668468E-2,-1.7709202E0,7.791081E-1,-3.03609E0,7.4165076E-1,3.3237593E0,-1.0194758E0,-2.1421201E0,2.57013E-1,-2.8769398E-1,3.4446383E0,1.18597E0,-1.1186231E0,1.1172967E0,-2.797758E-1,2.3115292E-1,-6.464367E-2,1.4762884E0,2.457247E-1],"split_indices":[2,2,3,2,3,1,0,3,1,0,1,0,3,3,1,2,0,0,0,1,1,3,1,2,0,0,1,1,3,0,3,2,0,1,0,3,0,0,1,0,0,0,0,0,0,0,0,0,0,0,0,0,0,0,0,0,0,0,0,0,0,0,0,0,0,0,0,0,0,0,0,0,0,0,0,0,0],"split_type":[0,0,0,0,0,0,0,0,0,0,0,0,0,0,0,0,0,0,0,0,0,0,0,0,0,0,0,0,0,0,0,0,0,0,0,0,0,0,0,0,0,0,0,0,0,0,0,0,0,0,0,0,0,0,0,0,0,0,0,0,0,0,0,0,0,0,0,0,0,0,0,0,0,0,0,0,0],"sum_hessian":[3.167E3,3.153E3,1.4E1,2.881E3,2.72E2,1.2E1,2E0,2.832E3,4.9E1,1.16E2,1.56E2,2E0,1E1,1.92E3,9.12E2,2.1E1,2.8E1,5E0,1.11E2,4.1E1,1.15E2,6E0,4E0,1.885E3,3.5E1,8.63E2,4.9E1,5E0,1.6E1,7E0,2.1E1,4E0,1E0,1.4E1,9.7E1,2.6E1,1.5E1,2.9E1,8.6E1,3E0,3E0,2E0,2E0,3.9E1,1.846E3,2.3E1,1.2E1,8.3E2,3.3E1,7E0,4.2E1,2E0,3E0,2E0,1.4E1,2E0,5E0,8E0,1.3E1,2E0,2E0,1.2E1,2E0,5E0,9.2E1,4E0,2.2E1,2E0,1.3E1,2E0,2.7E1,2.2E1,6.4E1,2E0,1E0,2E0,1E0],"tree_param":{"num_deleted":"0","num_feature":"4","num_nodes":"77","size_leaf_vector":"1"}},{"base_weights":[2.448251E-2,-4.376462E-2,9.7149676E-1,5.6882277E-2,-2.5999846E0,2.659144E-1,5.266685E0,2.5392039E-2,3.470174E0,-6.123276E0,-1.4636028E0,2.053157E0,-1.358243E0,9.280407E0,-1.5272654E0,1.9725478E-1,-6.503854E-1,1.0779095E1,7.345559E-1,1.8559339E0,-9.008797E0,2.8296611E0,-2.8941905E0,9.374447E0,5.413665E-1,-3.6732154E0,3.4588327E0,2.0239456E1,1.2010072E0,2.913127E0,-3.431639E0,1.02285236E-1,3.3866577E0,-1.5705378E0,6.758355E-1,6.880551E0,-6.4969845E0,-1.5452716E0,5.050031E0,1.2045517E0,-1.0210532E1,1.2522778E-1,4.4904914E0,-6.024523E0,-1.2632474E0,-1.9050115E0,1.5204678E1,1.0528958E1,-3.3496565E-1,-5.5095654E0,-8.166518E-1,1.0012928E1,-2.9131887E0,-4.203428E0,8.726297E0,3.712403E0,-4.749885E0,-2.1265566E0,2.3743248E0,7.3631436E-2,-3.844678E-1,5.395165E-1,3.5826907E0,-2.068943E0,-3.800983E-1,7.9724383E-1,-7.135426E-1,-2.0948374E0,3.3888786E0,-8.494521E-1,-2.3927357E0,1.8841842E0,-1.6543236E-1,9.5208555E-1,-4.1003725E-1,-3.3749163E0,-3.7940466E-1,-1.676816E0,1.1773605E0,1.4087585E-1,-2.7259238E0,1.7334737E0,-6.942489E-1,3.582387E-1,-1.6206585E0,5.6715374E0,-2.7149014E0,3.175129E-1,5.894025E0,-1.0158157E0,3.7925628E-1,-2.1681297E0,-8.282163E-1,3.2144532E0,-8.113622E-1,8.167814E0,1.1839077E0,-2.258749E0,-4.1587624E-1,-1.6439891E0,-2.4755345E-1,2.1965612E-1,4.1331196E0,-3.1027567E-1,-1.6931037E0,-1.6576759E0,1.7192098E0],"categories":[],"categories_nodes":[],"categories_segments":[],"categories_sizes":[],"default_left":[0,0,0,0,0,0,0,0,0,0,0,0,0,0,0,0,0,0,0,0,0,0,0,0,0,0,0,0,0,0,0,0,0,0,0,0,0,0,0,0,0,0,0,0,0,0,0,0,0,0,0,0,0,0,0,0,0,0,0,0,0,0,0,0,0,0,0,0,0,0,0,0,0,0,0,0,0,0,0,0,0,0,0,0,0,0,0,0,0,0,0,0,0,0,0,0,0,0,0,0,0,0,0,0,0,0,0],"id":16,"left_children":[1,3,5,7,9,11,13,15,17,19,21,23,25,27,29,31,33,-1,35,37,39,41,43,45,47,49,51,53,55,-1,57,59,61,63,65,67,69,-1,71,73,75,77,-1,79,81,83,85,87,89,91,93,95,97,99,-1,101,103,-1,105,-1,-1,-1,-1,-1,-1,-1,-1,-1,-1,-1,-1,-1,-1,-1,-1,-1,-1,-1,-1,-1,-1,-1,-1,-1,-1,-1,-1,-1,-1,-1,-1,-1,-1,-1,-1,-1,-1,-1,-1,-1,-1,-1,-1,-1,-1,-1,-1],"loss_changes":[2.0479355E2,7.6065466E2,6.4411926E2,3.0570773E2,4.3946405E2,5.3689716E2,8.3224457E2,3.2764578E2,2.2823694E3,6.383723E2,5.3639215E2,9.689315E2,1.0943906E3,1.6580007E3,2.9013174E2,6.80867E2,6.990875E2,0E0,1.1558281E3,2.0505641E2,2.5777393E2,7.2034485E2,3.242401E2,1.0153927E3,6.51208E2,3.4171356E2,1.3655803E3,1.8524717E3,1.9697403E2,0E0,2.503795E2,4.3316595E2,8.6178674E2,5.376912E2,1.4286714E3,9.359104E2,4.2462616E1,0E0,4.482184E1,1.9527107E1,1.531084E2,4.3445566E2,0E0,4.4172015E2,3.3897244E2,7.1480484E1,1.0686047E3,4.9731104E2,3.4094232E2,1.6889722E2,6.1677356E2,1.5633495E3,1.0938362E2,8.415421E0,0E0,2.5986642E2,7.4470444E0,0E0,1.6424077E2,0E0,0E0,0E0,0E0,0E0,0E0,0E0,0E0,0E0,0E0,0E0,0E0,0E0,0E0,0E0,0E0,0E0,0E0,0E0,0E0,0E0,0E0,0E0,0E0,0E0,0E0,0E0,0E0,0E0,0E0,0E0,0E0,0E0,0E0,0E0,0E0,0E0,0E0,0E0,0E0,0E0,0E0,0E0,0E0,0E0,0E0,0E0,0E0],"parents":[2147483647,0,0,1,1,2,2,3,3,4,4,5,5,6,6,7,7,8,8,9,9,10,10,11,11,12,12,13,13,14,14,15,15,16,16,18,18,19,19,20,20,21,21,22,22,23,23,24,24,25,25,26,26,27,27,28,28,30,30,31,31,32,32,33,33,34,34,35,35,36,36,38,38,39,39,40,40,41,41,43,43,44,44,45,45,46,46,47,47,48,48,49,49,50,50,51,51,52,52,53,53,55,55,56,56,58,58],"right_children":[2,4,6,8,10,12,14,16,18,20,22,24,26,28,30,32,34,-1,36,38,40,42,44,46,48,50,52,54,56,-1,58,60,62,64,66,68,70,-1,72,74,76,78,-1,80,82,84,86,88,90,92,94,96,98,100,-1,102,104,-1,106,-1,-1,-1,-1,-1,-1,-1,-1,-1,-1,-1,-1,-1,-1,-1,-1,-1,-1,-1,-1,-1,-1,-1,-1,-1,-1,-1,-1,-1,-1,-1,-1,-1,-1,-1,-1,-1,-1,-1,-1,-1,-1,-1,-1,-1,-1,-1,-1],"split_conditions":[3.252018E2,3.0969904E2,2.5999997E0,3.0407007E2,1.662249E1,1E-1,2.6415268E1,1.6902666E1,1.1879999E1,1.1440979E1,1.9386593E1,6.658918E0,1.5407082E1,1.3606833E1,2.6E0,1.6494583E1,6E-1,1.0779095E1,3.0741605E2,9.9571085E0,5.0318336E0,1.9228851E1,8E-1,3.6526663E0,3.2841702E2,8E-1,8.000001E-1,3.3318E2,1.05E1,2.913127E0,1.28425E1,7.8999996E0,6.7E0,1.7108915E1,2.27057E1,1.405845E1,1.8971008E1,-1.5452716E0,1.5504749E1,2.3630836E0,2.4999995E0,7.334167E0,4.4904914E0,3.157293E2,1.4E0,2.0630832E0,3.5790662E2,1.36675005E1,1.539184E1,3.4219962E2,1.2904882E1,1.6188086E1,1.6011E1,6.3943343E0,8.726297E0,7.6E0,1.3931834E1,-2.1265566E0,3.5E0,7.3631436E-2,-3.844678E-1,5.395165E-1,3.5826907E0,-2.068943E0,-3.800983E-1,7.9724383E-1,-7.135426E-1,-2.0948374E0,3.3888786E0,-8.494521E-1,-2.3927357E0,1.8841842E0,-1.6543236E-1,9.5208555E-1,-4.1003725E-1,-3.3749163E0,-3.7940466E-1,-1.676816E0,1.1773605E0,1.4087585E-1,-2.7259238E0,1.7334737E0,-6.942489E-1,3.582387E-1,-1.6206585E0,5.6715374E0,-2.7149014E0,3.175129E-1,5.894025E0,-1.0158157E0,3.7925628E-1,-2.1681297E0,-8.282163E-1,3.2144532E0,-8.113622E-1,8.167814E0,1.1839077E0,-2.258749E0,-4.1587624E-1,-1.6439891E0,-2.4755345E-1,2.1965612E-1,4.1331196E0,-3.1027567E-1,-1.6931037E0,-1.6576759E0,1.7192098E0],"split_indices":[3,3,1,3,2,1,2,0,2,2,2,0,0,0,1,0,1,0,3,2,0,2,1,0,3,1,1,3,1,0,0,1,1,0,2,2,2,0,0,0,1,0,0,3,1,0,3,0,2,3,2,0,0,0,0,1,0,0,1,0,0,0,0,0,0,0,0,0,0,0,0,0,0,0,0,0,0,0,0,0,0,0,0,0,0,0,0,0,0,0,0,0,0,0,0,0,0,0,0,0,0,0,0,0,0,0,0],"split_type":[0,0,0,0,0,0,0,0,0,0,0,0,0,0,0,0,0,0,0,0,0,0,0,0,0,0,0,0,0,0,0,0,0,0,0,0,0,0,0,0,0,0,0,0,0,0,0,0,0,0,0,0,0,0,0,0,0,0,0,0,0,0,0,0,0,0,0,0,0,0,0,0,0,0,0,0,0,0,0,0,0,0,0,0,0,0,0,0,0,0,0,0,0,0,0,0,0,0,0,0,0,0,0,0,0,0,0],"sum_hessian":[3.167E3,2.955E3,2.12E2,2.844E3,1.11E2,1.83E2,2.9E1,2.819E3,2.5E1,2.6E1,8.5E1,8.7E1,9.6E1,1.8E1,1.1E1,2.248E3,5.71E2,1E0,2.4E1,7E0,1.9E1,2.1E1,6.4E1,1.4E1,7.3E1,6.5E1,3.1E1,7E0,1.1E1,1E0,1E1,2.184E3,6.4E1,3.37E2,2.34E2,1.3E1,1.1E1,2E0,5E0,2E0,1.7E1,1.8E1,3E0,2.1E1,4.3E1,5E0,9E0,5E0,6.8E1,3.9E1,2.6E1,1.5E1,1.6E1,2E0,5E0,8E0,3E0,6E0,4E0,1.98E3,2.04E2,5.5E1,9E0,1.7E1,3.2E2,1.42E2,9.2E1,3E0,1E1,4E0,7E0,4E0,1E0,1E0,1E0,1.5E1,2E0,7E0,1.1E1,7E0,1.4E1,5E0,3.8E1,3E0,2E0,8E0,1E0,3E0,2E0,2.3E1,4.5E1,2.3E1,1.6E1,3E0,2.3E1,3E0,1.2E1,3E0,1.3E1,1E0,1E0,7E0,1E0,1E0,2E0,1E0,3E0],"tree_param":{"num_deleted":"0","num_feature":"4","num_nodes":"107","size_leaf_vector":"1"}},{"base_weights":[2.7576001E-2,-4.7634363E-1,1.5608953E-1,-1.5042126E0,1.5391444E0,7.7577615E0,3.992409E-2,-1.2888204E0,-1.2624275E1,1.123798E1,1.0677209E0,1.042882E1,2.5345403E-1,8.993294E-1,-3.0647656E-1,6.994532E-1,-2.0140998E0,-8.094126E0,-3.342158E0,1.8627207E1,1.2331085E-1,2.9149592E-1,6.0750504E0,1.3284121E1,3.9608655E0,7.774945E0,-7.3102794E0,1.0423007E0,-2.288885E0,-1.1528413E0,-1.3893855E-1,-6.6151774E-1,1.4783606E1,4.3017432E-1,-3.6860368E0,1.9764291E0,-6.6458282E0,7.3174644E0,9.647152E0,-3.6709976E0,2.2950819E0,-9.6887964E-1,4.266512E0,9.203713E0,-2.89707E0,5.2025647E0,1.8688656E1,-4.4529505E0,7.6994433E0,-2.6550686E0,4.096116E0,-4.038334E0,3.3275921E0,1.4388405E0,-4.522787E-2,-8.927687E0,-1.2587389E0,-2.295938E0,7.4210936E-1,1.5440513E0,-2.8566644E-1,-1.3620162E0,2.696151E-1,9.707099E0,-6.974461E-1,-2.6889868E0,4.492756E-1,-1.7789989E0,-5.1665175E-1,-5.028877E-1,-2.8200266E0,1.1966599E0,3.9933016E0,-1.5832826E0,1.7232513E-1,9.1102235E-3,-1.9755429E0,5.9426594E0,7.9383713E-1,7.2069985E-1,3.529233E0,-3.503126E0,5.9273493E-1,3.4765E0,2.3487473E-2,4.212141E-2,7.6880097E0,9.0954113E-1,4.8072367E0,-1.6058145E0,4.1103345E-1,-2.4430849E-1,1.7417251E0,3.7733725E-1,3.0662122E0,-1.0371042E-1,2.280554E0,-3.6041634E0,-1.1682991E0,1.6859132E0,-6.0119796E-1,-1.7234335E0,-3.0813894E-1,1.9364889E0,-1.7531896E-1,1.3514519E-1,4.025666E0,-1.2074065E0,-5.61169E-2],"categories":[],"categories_nodes":[],"categories_segments":[],"categories_sizes":[],"default_left":[0,0,0,0,0,0,0,0,0,0,0,0,0,0,0,0,0,0,0,0,0,0,0,0,0,0,0,0,0,0,0,0,0,0,0,0,0,0,0,0,0,0,0,0,0,0,0,0,0,0,0,0,0,0,0,0,0,0,0,0,0,0,0,0,0,0,0,0,0,0,0,0,0,0,0,0,0,0,0,0,0,0,0,0,0,0,0,0,0,0,0,0,0,0,0,0,0,0,0,0,0,0,0,0,0,0,0,0,0],"id":17,"left_children":[1,3,5,7,9,11,13,15,17,19,21,23,25,27,29,31,33,-1,35,37,39,41,43,45,47,49,51,53,55,57,59,61,63,65,67,-1,69,-1,71,73,-1,75,77,79,81,83,85,-1,87,89,-1,-1,91,93,95,97,99,101,103,105,107,-1,-1,-1,-1,-1,-1,-1,-1,-1,-1,-1,-1,-1,-1,-1,-1,-1,-1,-1,-1,-1,-1,-1,-1,-1,-1,-1,-1,-1,-1,-1,-1,-1,-1,-1,-1,-1,-1,-1,-1,-1,-1,-1,-1,-1,-1,-1,-1],"loss_changes":[2.052356E2,1.3364626E3,2.2293955E3,1.0064691E3,9.847533E2,7.590454E2,7.409497E2,6.070716E2,9.7587024E2,8.189912E2,8.105733E2,4.6448608E2,6.826331E2,3.2829913E2,2.5138994E2,2.1757773E3,1.2602808E3,0E0,2.406211E2,7.527539E1,1.708822E2,9.1595605E2,8.1264453E2,7.32635E2,8.172876E2,4.0414575E2,4.3738382E2,2.9547015E2,2.007694E2,6.363747E2,3.6640845E2,6.334286E2,3.0817544E3,1.2767858E3,7.962378E2,0E0,5.2679672E1,0E0,2.9828674E1,3.0314465E1,0E0,7.802727E2,1.0557078E3,3.374375E2,3.653412E2,2.935945E2,1.4119758E3,0E0,3.0112732E2,3.9909348E1,0E0,0E0,3.552123E1,7.853015E2,4.2541275E2,1.5349609E1,1.5479526E2,7.9489215E2,8.449451E2,1.539281E3,5.0216125E2,0E0,0E0,0E0,0E0,0E0,0E0,0E0,0E0,0E0,0E0,0E0,0E0,0E0,0E0,0E0,0E0,0E0,0E0,0E0,0E0,0E0,0E0,0E0,0E0,0E0,0E0,0E0,0E0,0E0,0E0,0E0,0E0,0E0,0E0,0E0,0E0,0E0,0E0,0E0,0E0,0E0,0E0,0E0,0E0,0E0,0E0,0E0,0E0],"parents":[2147483647,0,0,1,1,2,2,3,3,4,4,5,5,6,6,7,7,8,8,9,9,10,10,11,11,12,12,13,13,14,14,15,15,16,16,18,18,19,19,20,20,21,21,22,22,23,23,24,24,25,25,26,26,27,27,28,28,29,29,30,30,31,31,32,32,33,33,34,34,36,36,38,38,39,39,41,41,42,42,43,43,44,44,45,45,46,46,48,48,49,49,52,52,53,53,54,54,55,55,56,56,57,57,58,58,59,59,60,60],"right_children":[2,4,6,8,10,12,14,16,18,20,22,24,26,28,30,32,34,-1,36,38,40,42,44,46,48,50,52,54,56,58,60,62,64,66,68,-1,70,-1,72,74,-1,76,78,80,82,84,86,-1,88,90,-1,-1,92,94,96,98,100,102,104,106,108,-1,-1,-1,-1,-1,-1,-1,-1,-1,-1,-1,-1,-1,-1,-1,-1,-1,-1,-1,-1,-1,-1,-1,-1,-1,-1,-1,-1,-1,-1,-1,-1,-1,-1,-1,-1,-1,-1,-1,-1,-1,-1,-1,-1,-1,-1,-1,-1],"split_conditions":[9.278192E1,1E-1,1.0002868E2,9.096975E1,-7.2649974E-1,1.6840416E1,1E-1,3.7342327E1,9.877667E0,1.9969458E1,1.8775583E1,1E-1,1.4168641E1,3.0222849E1,1.937363E2,3.472041E1,8.263083E0,-8.094126E0,1.030883E1,6.055668E1,7.140938E1,6.3736813E1,2.1940414E1,5.0318336E0,2E-1,1.7985998E1,1E-1,2.6470734E2,4.74875E0,1.2050832E1,1.4689588E1,1.4007655E1,1.7377226E1,1.1159999E1,1.4638083E1,1.9764291E0,1.8629751E1,7.3174644E0,1.1000001E0,3.9999995E0,2.2950819E0,5.1388474E1,6.47595E1,2.2609747E1,2.3004747E1,9.468718E1,9.468718E1,-4.4529505E0,2.8999996E0,1.7781832E1,4.096116E0,-4.038334E0,1.8954998E1,2.5995508E2,2.6161375E1,2.240167E0,3.0953718E1,1.8584509E1,1.3606833E1,1.44E1,1.5542662E1,-1.3620162E0,2.696151E-1,9.707099E0,-6.974461E-1,-2.6889868E0,4.492756E-1,-1.7789989E0,-5.1665175E-1,-5.028877E-1,-2.8200266E0,1.1966599E0,3.9933016E0,-1.5832826E0,1.7232513E-1,9.1102235E-3,-1.9755429E0,5.9426594E0,7.9383713E-1,7.2069985E-1,3.529233E0,-3.503126E0,5.9273493E-1,3.4765E0,2.3487473E-2,4.212141E-2,7.6880097E0,9.0954113E-1,4.8072367E0,-1.6058145E0,4.1103345E-1,-2.4430849E-1,1.7417251E0,3.7733725E-1,3.0662122E0,-1.0371042E-1,2.280554E0,-3.6041634E0,-1.1682991E0,1.6859132E0,-6.0119796E-1,-1.7234335E0,-3.0813894E-1,1.9364889E0,-1.7531896E-1,1.3514519E-1,4.025666E0,-1.2074065E0,-5.61169E-2],"split_indices":[3,1,3,3,0,0,1,3,0,2,0,1,2,2,3,3,0,0,2,3,3,3,0,0,1,0,1,3,0,0,2,2,2,2,0,0,0,0,1,1,0,3,3,3,0,3,3,0,1,0,0,0,0,3,2,0,2,2,0,2,2,0,0,0,0,0,0,0,0,0,0,0,0,0,0,0,0,0,0,0,0,0,0,0,0,0,0,0,0,0,0,0,0,0,0,0,0,0,0,0,0,0,0,0,0,0,0,0,0],"split_type":[0,0,0,0,0,0,0,0,0,0,0,0,0,0,0,0,0,0,0,0,0,0,0,0,0,0,0,0,0,0,0,0,0,0,0,0,0,0,0,0,0,0,0,0,0,0,0,0,0,0,0,0,0,0,0,0,0,0,0,0,0,0,0,0,0,0,0,0,0,0,0,0,0,0,0,0,0,0,0,0,0,0,0,0,0,0,0,0,0,0,0,0,0,0,0,0,0,0,0,0,0,0,0,0,0,0,0,0,0],"sum_hessian":[3.167E3,6.43E2,2.524E3,4.26E2,2.17E2,3.7E1,2.487E3,4.19E2,7E0,9E0,2.08E2,2.7E1,1E1,7.14E2,1.773E3,1.12E2,3.07E2,2E0,5E0,5E0,4E0,1.81E2,2.7E1,1.8E1,9E0,5E0,5E0,6.84E2,3E1,2.92E2,1.481E3,1.03E2,9E0,1.25E2,1.82E2,1E0,4E0,2E0,3E0,3E0,1E0,1.38E2,4.3E1,2E1,7E0,8E0,1E1,1E0,8E0,2E0,3E0,3E0,2E0,5.01E2,1.83E2,3E0,2.7E1,1.82E2,1.1E2,1.18E2,1.363E3,2.9E1,7.4E1,4E0,5E0,1.2E1,1.13E2,8.4E1,9.8E1,2E0,2E0,2E0,1E0,2E0,1E0,1.18E2,2E1,3E0,4E1,6E0,1.4E1,2E0,5E0,3E0,5E0,3E0,7E0,6E0,